{"learner":{"attributes":{"scikit_learn":"{\"_estimator_type\": \"classifier\"}"},"feature_names":["LB","AC","FM","UC","DL","DS","DP","ASTV","MSTV","ALTV","MLTV","Width","Nmax","Nzeros","Median","Variance","Tendency"],"feature_types":["int","float","float","float","float","float","float","float","float","float","float","int","int","int","int","int","int"],"gradient_booster":{"model":{"gbtree_model_param":{"num_parallel_tree":"1","num_trees":"438"},"iteration_indptr":[0,3,6,9,12,15,18,21,24,27,30,33,36,39,42,45,48,51,54,57,60,63,66,69,72,75,78,81,84,87,90,93,96,99,102,105,108,111,114,117,120,123,126,129,132,135,138,141,144,147,150,153,156,159,162,165,168,171,174,177,180,183,186,189,192,195,198,201,204,207,210,213,216,219,222,225,228,231,234,237,240,243,246,249,252,255,258,261,264,267,270,273,276,279,282,285,288,291,294,297,300,303,306,309,312,315,318,321,324,327,330,333,336,339,342,345,348,351,354,357,360,363,366,369,372,375,378,381,384,387,390,393,396,399,402,405,408,411,414,417,420,423,426,429,432,435,438],"tree_info":[0,1,2,0,1,2,0,1,2,0,1,2,0,1,2,0,1,2,0,1,2,0,1,2,0,1,2,0,1,2,0,1,2,0,1,2,0,1,2,0,1,2,0,1,2,0,1,2,0,1,2,0,1,2,0,1,2,0,1,2,0,1,2,0,1,2,0,1,2,0,1,2,0,1,2,0,1,2,0,1,2,0,1,2,0,1,2,0,1,2,0,1,2,0,1,2,0,1,2,0,1,2,0,1,2,0,1,2,0,1,2,0,1,2,0,1,2,0,1,2,0,1,2,0,1,2,0,1,2,0,1,2,0,1,2,0,1,2,0,1,2,0,1,2,0,1,2,0,1,2,0,1,2,0,1,2,0,1,2,0,1,2,0,1,2,0,1,2,0,1,2,0,1,2,0,1,2,0,1,2,0,1,2,0,1,2,0,1,2,0,1,2,0,1,2,0,1,2,0,1,2,0,1,2,0,1,2,0,1,2,0,1,2,0,1,2,0,1,2,0,1,2,0,1,2,0,1,2,0,1,2,0,1,2,0,1,2,0,1,2,0,1,2,0,1,2,0,1,2,0,1,2,0,1,2,0,1,2,0,1,2,0,1,2,0,1,2,0,1,2,0,1,2,0,1,2,0,1,2,0,1,2,0,1,2,0,1,2,0,1,2,0,1,2,0,1,2,0,1,2,0,1,2,0,1,2,0,1,2,0,1,2,0,1,2,0,1,2,0,1,2,0,1,2,0,1,2,0,1,2,0,1,2,0,1,2,0,1,2,0,1,2,0,1,2,0,1,2,0,1,2,0,1,2,0,1,2,0,1,2,0,1,2,0,1,2,0,1,2,0,1,2,0,1,2,0,1,2,0,1,2,0,1,2,0,1,2,0,1,2,0,1,2,0,1,2,0,1,2,0,1,2,0,1,2,0,1,2,0,1,2,0,1,2,0,1,2,0,1,2,0,1,2,0,1,2,0,1,2,0,1,2,0,1,2,0,1,2],"trees":[{"base_weights":[9.996419E-1,-3.5616443E-1,1.1782459E0,-5.3308135E-1,3.5036492E-1,-3.918368E-1,1.2578175E0,-6.547885E-1,1.3483143E-1,2.1772002E-1,-1.5564471E-1,1.9734855E-1,-1.78916E-1,9.2154497E-1,1.4366198E0,-1.7278548E-1,-2.0268237E-2,1.9997986E-1,-1.1319616E-1,1.1880342E0,4.5024467E-1,6.986301E-1,1.4503179E0,-6.1218336E-2,3.1166655E-1,-3.242918E-2,1.7160743E-1,2.999698E-1,-2.0268237E-2,3.646492E-1,1.8394373E-1],"categories":[],"categories_nodes":[],"categories_segments":[],"categories_sizes":[],"default_left":[0,0,0,0,0,0,0,0,0,0,0,0,0,0,0,0,0,0,0,0,0,0,0,0,0,0,0,0,0,0,0],"id":0,"left_children":[1,3,5,7,9,11,13,15,17,-1,-1,-1,-1,19,21,-1,-1,-1,-1,23,25,27,29,-1,-1,-1,-1,-1,-1,-1,-1],"loss_changes":[1.5068866E2,9.311552E0,6.902606E1,4.8663177E0,8.253116E0,1.0980974E1,3.0082153E1,9.8643875E-1,4.2277718E0,0E0,0E0,0E0,0E0,2.258879E1,2.4159546E0,0E0,0E0,0E0,0E0,1.0156204E1,9.421737E0,3.2681227E0,9.258423E-1,0E0,0E0,0E0,0E0,0E0,0E0,0E0,0E0],"parents":[2147483647,0,0,1,1,2,2,3,3,4,4,5,5,6,6,7,7,8,8,13,13,14,14,19,19,20,20,21,21,22,22],"right_children":[2,4,6,8,10,12,14,16,18,-1,-1,-1,-1,20,22,-1,-1,-1,-1,24,26,28,30,-1,-1,-1,-1,-1,-1,-1,-1],"split_conditions":[5E-1,7.9E0,1.12E2,5.6497175E-3,1.6722408E-3,1.16E2,8.718396E-4,8.474576E-4,1.47E2,2.1772002E-1,-1.5564471E-1,1.9734855E-1,-1.78916E-1,1.42E2,1.16E2,-1.7278548E-1,-2.0268237E-2,1.9997986E-1,-1.1319616E-1,1E-1,1.0235414E-3,1.15E2,3.8262194E-1,-6.1218336E-2,3.1166655E-1,-3.242918E-2,1.7160743E-1,2.999698E-1,-2.0268237E-2,3.646492E-1,1.8394373E-1],"split_indices":[8,10,14,3,2,0,1,1,14,0,0,0,0,14,14,0,0,0,0,10,3,0,2,0,0,0,0,0,0,0,0],"split_type":[0,0,0,0,0,0,0,0,0,0,0,0,0,0,0,0,0,0,0,0,0,0,0,0,0,0,0,0,0,0,0],"sum_hessian":[6.1955554E2,7.199999E1,5.4755554E2,5.7777775E1,1.4222221E1,2.6222221E1,5.213333E2,4.8888885E1,8.888888E0,9.333333E0,4.8888884E0,5.333333E0,2.0888887E1,1.831111E2,3.382222E2,4.5777775E1,3.111111E0,3.9999998E0,4.8888884E0,1.1599999E2,6.711111E1,7.1111107E0,3.3111108E2,4.444444E0,1.1155555E2,1.9555553E1,4.7555553E1,3.9999998E0,3.111111E0,3.262222E2,4.8888884E0],"tree_param":{"num_deleted":"0","num_feature":"17","num_nodes":"31","size_leaf_vector":"1"}},{"base_weights":[-4.4785836E-1,4.3308744E-1,-6.290007E-1,6.175396E-1,-1.7516485E-1,-7.0493996E-1,-2.9054847E-1,-3.5294122E-1,8.2865584E-1,-2.8187925E-1,-1.8014832E-1,-4.6153852E-1,7.4399996E-1,-5.1428574E-1,-9.4103125E-9,-1.3375801E-1,1.100189E0,-2.1426424E-2,-1.5564471E-1,-5.6756765E-1,1.239669E-1,2.823245E-1,-1.5304591E-2,-2.0268237E-2,-1.6556776E-1,5.1364683E-2,-9.676446E-2,3.334805E-1,-1.07132085E-1,-1.5920186E-1,-3.7124988E-2,-8.822642E-2,2.4997483E-1],"categories":[],"categories_nodes":[],"categories_segments":[],"categories_sizes":[],"default_left":[0,0,0,0,0,0,0,0,0,0,0,0,0,0,0,0,0,0,0,0,0,0,0,0,0,0,0,0,0,0,0,0,0],"id":1,"left_children":[1,3,5,7,-1,9,11,13,15,17,-1,19,21,23,-1,25,27,-1,-1,29,31,-1,-1,-1,-1,-1,-1,-1,-1,-1,-1,-1,-1],"loss_changes":[9.837656E1,2.2484856E1,1.2911697E1,1.8982464E1,0E0,2.5652313E0,1.7187954E1,9.680674E-1,1.9804783E1,1.0532972E0,0E0,5.1816635E0,4.379468E0,6.945596E-1,0E0,1.5787508E0,2.1586388E1,0E0,0E0,1.9351273E0,5.969858E0,0E0,0E0,0E0,0E0,0E0,0E0,0E0,0E0,0E0,0E0,0E0,0E0],"parents":[2147483647,0,0,1,1,2,2,3,3,5,5,6,6,7,7,8,8,9,9,11,11,12,12,13,13,15,15,16,16,19,19,20,20],"right_children":[2,4,6,8,-1,10,12,14,16,18,-1,20,22,24,-1,26,28,-1,-1,30,32,-1,-1,-1,-1,-1,-1,-1,-1,-1,-1,-1,-1],"split_conditions":[6E-1,6.9E-1,7E-2,7E-2,-1.7516485E-1,7E-1,8E0,1.5243902E-3,6E-1,4E0,-1.8014832E-1,1.1E1,6.5019506E-4,9.3E0,-9.4103125E-9,6.4E0,7.9E-1,-2.1426424E-2,-1.5564471E-1,4.3E-1,5.8E-1,2.823245E-1,-1.5304591E-2,-2.0268237E-2,-1.6556776E-1,5.1364683E-2,-9.676446E-2,3.334805E-1,-1.07132085E-1,-1.5920186E-1,-3.7124988E-2,-8.822642E-2,2.4997483E-1],"split_indices":[8,9,9,9,0,8,12,2,7,15,0,10,1,10,0,10,7,0,0,9,7,0,0,0,0,0,0,0,0,0,0,0,0],"split_type":[0,0,0,0,0,0,0,0,0,0,0,0,0,0,0,0,0,0,0,0,0,0,0,0,0,0,0,0,0,0,0,0,0],"sum_hessian":[6.137778E2,1.04444435E2,5.093333E2,9.022221E1,1.4222221E1,4.1511108E2,9.422221E1,1.5999999E1,7.422222E1,1.5555554E1,3.9955554E2,8.133333E1,1.2888888E1,1.0666666E1,5.333333E0,1.6444443E1,5.7777775E1,1.0666666E1,4.8888884E0,6.8888885E1,1.2444444E1,8.444444E0,4.444444E0,3.111111E0,7.5555553E0,7.1111107E0,9.333333E0,5.0222218E1,7.5555553E0,5.8666664E1,1.0222221E1,8.444444E0,3.9999998E0],"tree_param":{"num_deleted":"0","num_feature":"17","num_nodes":"33","size_leaf_vector":"1"}},{"base_weights":[-5.457523E-1,9.5501727E-1,-6.2794715E-1,8.571424E-2,3.458201E-1,-6.761063E-1,2.8720513E-1,-1.5787885E-1,1.9734855E-1,-7.0560104E-1,3.3113548E-1,-7.249139E-1,3.8709673E-1,-1.8253027E-1,-3.946972E-2,-3.946972E-2,2.4997483E-1],"categories":[],"categories_nodes":[],"categories_segments":[],"categories_sizes":[],"default_left":[0,0,0,0,0,0,0,0,0,0,0,0,0,0,0,0,0],"id":2,"left_children":[1,3,5,7,-1,9,-1,-1,-1,11,-1,13,15,-1,-1,-1,-1],"loss_changes":[7.594255E1,1.1839972E1,5.0380676E1,6.38797E0,0E0,3.4276825E1,0E0,0E0,0E0,1.2044403E1,0E0,1.5259094E0,3.6095068E0,0E0,0E0,0E0,0E0],"parents":[2147483647,0,0,1,1,2,2,3,3,5,5,9,9,11,11,12,12],"right_children":[2,4,6,8,-1,10,-1,-1,-1,12,-1,14,16,-1,-1,-1,-1],"split_conditions":[1.13E2,7.936508E-4,6.9E-1,3.8E1,3.458201E-1,8E-1,2.8720513E-1,-1.5787885E-1,1.9734855E-1,1.6556291E-3,3.3113548E-1,1.09E2,5.8E-1,-1.8253027E-1,-3.946972E-2,-3.946972E-2,2.4997483E-1],"split_indices":[14,6,9,15,0,7,0,0,0,6,0,15,7,0,0,0,0],"split_type":[0,0,0,0,0,0,0,0,0,0,0,0,0,0,0,0,0],"sum_hessian":[6.097778E2,3.1111109E1,5.786666E2,1.0666666E1,2.0444443E1,5.6399994E2,1.4666666E1,5.333333E0,5.333333E0,5.564444E2,7.5555553E0,5.471111E2,9.333333E0,5.417778E2,5.333333E0,5.333333E0,3.9999998E0],"tree_param":{"num_deleted":"0","num_feature":"17","num_nodes":"17","size_leaf_vector":"1"}},{"base_weights":[7.373885E-1,9.630143E-1,1.4621E-1,9.865571E-1,1.1300904E-2,-3.0561528E-1,5.034867E-1,1.0469846E0,7.181348E-1,-1.472534E-1,2.2834212E-1,-4.4987696E-1,1.6455331E-1,-5.573857E-1,7.908855E-1,1.0598775E0,4.1200602E-1,2.3831509E-1,2.6063952E-1,-5.1299685E-1,9.660318E-2,2.2864893E-1,-3.3586293E-1,-1.6802919E-1,9.735399E-3,9.3208873E-1,-6.5378374E-3,2.7013874E-1,1.9880024E-1,-6.6900454E-2,2.3542258E-1,1.1915471E-1,-1.3682681E-1,-5.3151526E-2,-1.5058017E-1,-1.21336885E-1,1.909977E-2,2.5751477E-1,5.0055522E-2,8.998726E-2,-1.2050989E-1],"categories":[],"categories_nodes":[],"categories_segments":[],"categories_sizes":[],"default_left":[0,0,0,0,0,0,0,0,0,0,0,0,0,0,0,0,0,0,0,0,0,0,0,0,0,0,0,0,0,0,0,0,0,0,0,0,0,0,0,0,0],"id":3,"left_children":[1,3,5,7,9,11,13,15,17,-1,-1,19,21,23,25,27,29,31,-1,33,-1,-1,35,-1,-1,37,39,-1,-1,-1,-1,-1,-1,-1,-1,-1,-1,-1,-1,-1,-1],"loss_changes":[8.878342E1,1.0796112E1,3.0071709E1,6.88266E0,7.392622E0,5.6671066E0,3.2111153E1,2.6907349E0,1.3715065E1,0E0,0E0,3.5433521E0,7.849726E0,1.5821176E0,9.255524E0,1.1963501E0,3.5783083E0,7.2790775E0,0E0,1.4653711E0,0E0,0E0,8.252038E-1,0E0,0E0,4.803234E0,2.5005577E0,0E0,0E0,0E0,0E0,0E0,0E0,0E0,0E0,0E0,0E0,0E0,0E0,0E0,0E0],"parents":[2147483647,0,0,1,1,2,2,3,3,4,4,5,5,6,6,7,7,8,8,11,11,12,12,13,13,14,14,15,15,16,16,17,17,19,19,22,22,25,25,26,26],"right_children":[2,4,6,8,10,12,14,16,18,-1,-1,20,22,24,26,28,30,32,-1,34,-1,-1,36,-1,-1,38,40,-1,-1,-1,-1,-1,-1,-1,-1,-1,-1,-1,-1,-1,-1],"split_conditions":[6E-1,1.03E2,6E-1,1.52E2,2.5445293E-3,9.3E0,1E-1,1.351126E-1,2.9368575E-3,-1.472534E-1,2.2834212E-1,1.5923567E-3,2.8E1,1.15E2,3.7E1,5.5E1,4.198153E-3,1.09E1,2.6063952E-1,1.34E2,9.660318E-2,2.2864893E-1,1.15E1,-1.6802919E-1,9.735399E-3,1.1E1,5.1E0,2.7013874E-1,1.9880024E-1,-6.6900454E-2,2.3542258E-1,1.1915471E-1,-1.3682681E-1,-5.3151526E-2,-1.5058017E-1,-1.21336885E-1,1.909977E-2,2.5751477E-1,5.0055522E-2,8.998726E-2,-1.2050989E-1],"split_indices":[7,15,8,14,1,10,10,2,1,0,0,1,11,14,15,15,1,10,0,0,0,0,10,0,0,10,10,0,0,0,0,0,0,0,0,0,0,0,0,0,0],"split_type":[0,0,0,0,0,0,0,0,0,0,0,0,0,0,0,0,0,0,0,0,0,0,0,0,0,0,0,0,0,0,0,0,0,0,0,0,0,0,0,0,0],"sum_hessian":[6.656726E2,4.8133865E2,1.8433394E2,4.6968335E2,1.1655301E1,8.146054E1,1.02873405E2,3.810097E2,8.8673645E1,7.2065144E0,4.4487867E0,6.2367496E1,1.9093042E1,2.1728352E1,8.114505E1,3.7277155E2,8.238164E0,3.647669E1,5.2196957E1,5.835026E1,4.0172353E0,7.3089375E0,1.1784105E1,1.8114046E1,3.6143053E0,6.879445E1,1.2350606E1,3.4276065E2,3.001089E1,3.8254545E0,4.4127097E0,2.8288181E1,8.188509E0,1.4156678E1,4.4193584E1,8.517401E0,3.2667046E0,6.0305355E1,8.489091E0,7.1120863E0,5.238519E0],"tree_param":{"num_deleted":"0","num_feature":"17","num_nodes":"41","size_leaf_vector":"1"}},{"base_weights":[-3.7661502E-1,-6.0799456E-1,1.22246444E-1,-1.6192706E-1,-3.7857062E-1,-3.7409195E-1,3.640883E-1,8.2920957E-1,-6.3155234E-1,-1.03783734E-1,-5.75745E-1,4.7453567E-1,-5.046701E-1,8.564931E-2,3.0658862E-1,-1.6384961E-2,-1.6739506E-1,-1.3439657E-1,1.2260996E-1,-1.639577E-1,2.6592828E-2,6.9274265E-1,1.7434373E-1,-1.565421E-1,-1.8794911E-2,9.533548E-2,-1.4128351E-1,1.9441327E-1,-1.3568243E-1,1.57015E-2,2.1545944E-1],"categories":[],"categories_nodes":[],"categories_segments":[],"categories_sizes":[],"default_left":[0,0,0,0,0,0,0,0,0,0,0,0,0,0,0,0,0,0,0,0,0,0,0,0,0,0,0,0,0,0,0],"id":4,"left_children":[1,3,5,-1,7,9,11,13,15,17,19,21,23,-1,-1,-1,-1,-1,25,-1,-1,27,29,-1,-1,-1,-1,-1,-1,-1,-1],"loss_changes":[6.5519844E1,3.291214E0,2.1800825E1,0E0,1.8754406E1,3.1902409E0,1.1932367E1,1.6607785E0,1.0320683E0,2.687973E0,1.924777E0,6.9950466E0,6.9582915E-1,0E0,0E0,0E0,0E0,0E0,3.482576E0,0E0,0E0,6.99234E0,3.5549116E0,0E0,0E0,0E0,0E0,0E0,0E0,0E0,0E0],"parents":[2147483647,0,0,1,1,2,2,4,4,5,5,6,6,7,7,8,8,9,9,10,10,11,11,12,12,18,18,21,21,22,22],"right_children":[2,4,6,-1,8,10,12,14,16,18,20,22,24,-1,-1,-1,-1,-1,26,-1,-1,28,30,-1,-1,-1,-1,-1,-1,-1,-1],"split_conditions":[8E-2,1.51E2,1.41E2,-1.6192706E-1,1.2239902E-3,3.241491E-3,2.244669E-3,1.09E1,2.9368575E-3,1.8E-1,7E0,2.8708135E-3,2.3E-1,8.564931E-2,3.0658862E-1,-1.6384961E-2,-1.6739506E-1,-1.3439657E-1,6.8E-1,-1.639577E-1,2.6592828E-2,6.9E-1,6E0,-1.565421E-1,-1.8794911E-2,9.533548E-2,-1.4128351E-1,1.9441327E-1,-1.3568243E-1,1.57015E-2,2.1545944E-1],"split_indices":[9,14,14,0,1,3,1,10,1,9,12,3,9,0,0,0,0,0,9,0,0,9,12,0,0,0,0,0,0,0,0],"split_type":[0,0,0,0,0,0,0,0,0,0,0,0,0,0,0,0,0,0,0,0,0,0,0,0,0,0,0,0,0,0,0],"sum_hessian":[5.6598944E2,3.8650415E2,1.794853E2,3.278382E2,5.866597E1,5.862363E1,1.2086167E2,9.765582E0,4.8900387E1,2.5695057E1,3.2928574E1,1.07631935E2,1.3229734E1,5.2265396E0,4.539042E0,3.255279E0,4.5645107E1,8.339189E0,1.7355867E1,2.9500622E1,3.427953E0,6.1569748E1,4.606219E1,9.954185E0,3.2755501E0,1.2934898E1,4.42097E0,5.7953777E1,3.6159685E0,4.0572365E1,5.4898267E0],"tree_param":{"num_deleted":"0","num_feature":"17","num_nodes":"31","size_leaf_vector":"1"}},{"base_weights":[-4.821848E-1,-5.71375E-1,8.4590703E-1,1.738638E-1,-6.2247854E-1,9.689102E-1,-7.6799214E-2,2.2341715E-1,-3.0273536E-2,5.8956975E-1,-6.4133996E-1,2.6090825E-1,1.20305024E-1,1.1924167E-1,-2.0860104E-1,1.2518086E-2,2.3598567E-1,-6.4887905E-1,8.752834E-2,-7.961391E-2,8.1324026E-2,-1.6443652E-1,-4.8597556E-2],"categories":[],"categories_nodes":[],"categories_segments":[],"categories_sizes":[],"default_left":[0,0,0,0,0,0,0,0,0,0,0,0,0,0,0,0,0,0,0,0,0,0,0],"id":5,"left_children":[1,3,5,7,9,11,-1,-1,13,15,17,-1,-1,-1,19,-1,-1,21,-1,-1,-1,-1,-1],"loss_changes":[6.820189E1,2.053334E1,5.4577904E0,5.1997147E0,1.1856918E1,7.0598984E-1,0E0,0E0,2.6677234E0,1.5237021E0,3.9265442E0,0E0,0E0,0E0,1.376863E0,0E0,0E0,1.8675995E0,0E0,0E0,0E0,0E0,0E0],"parents":[2147483647,0,0,1,1,2,2,3,3,4,4,5,5,8,8,9,9,10,10,14,14,17,17],"right_children":[2,4,6,8,10,12,-1,-1,14,16,18,-1,-1,-1,20,-1,-1,22,-1,-1,-1,-1,-1],"split_conditions":[1.4556041E-3,4E-1,1.31E2,1.1E1,1.08E2,1.21E2,-7.6799214E-2,2.2341715E-1,1.37E2,9.44206E-3,1.2594459E-2,2.6090825E-1,1.20305024E-1,1.1924167E-1,2.9E1,1.2518086E-2,2.3598567E-1,1.010101E-3,8.752834E-2,-7.961391E-2,8.1324026E-2,-1.6443652E-1,-4.8597556E-2],"split_indices":[6,8,14,11,14,14,0,0,14,4,4,0,0,0,11,0,0,6,0,0,0,0,0],"split_type":[0,0,0,0,0,0,0,0,0,0,0,0,0,0,0,0,0,0,0,0,0,0,0],"sum_hessian":[5.706925E2,5.353125E2,3.538002E1,3.419835E1,5.0111414E2,3.2114204E1,3.265814E0,6.8087873E0,2.738956E1,7.2150016E0,4.938991E2,2.6853237E1,5.260967E0,6.688331E0,2.070123E1,3.313382E0,3.9016197E0,4.905149E2,3.384236E0,1.7502575E1,3.1986544E0,4.806202E2,9.894686E0],"tree_param":{"num_deleted":"0","num_feature":"17","num_nodes":"23","size_leaf_vector":"1"}},{"base_weights":[5.846186E-1,7.77719E-1,5.8191482E-2,7.9902357E-1,-1.17339104E-1,3.7466866E-1,-3.9681223E-1,8.1284744E-1,-1.7417201E-1,5.726249E-1,-1.3947453E-1,-6.0936207E-1,2.580104E-1,8.5559523E-1,6.1317897E-1,6.6002554E-1,-1.2991503E-1,-1.6634361E-1,1.6788937E-2,6.0468245E-1,-1.473762E-1,2.1552461E-1,8.201835E-2,6.2453452E-2,2.1128902E-1,1.8298605E-1,-7.880694E-2,-1.3057895E-1,1.323286E-1,-3.660229E-3,2.0729671E-1],"categories":[],"categories_nodes":[],"categories_segments":[],"categories_sizes":[],"default_left":[0,0,0,0,0,0,0,0,0,0,0,0,0,0,0,0,0,0,0,0,0,0,0,0,0,0,0,0,0,0,0],"id":6,"left_children":[1,3,5,7,-1,9,11,13,-1,15,-1,17,19,21,23,25,27,-1,-1,29,-1,-1,-1,-1,-1,-1,-1,-1,-1,-1,-1],"loss_changes":[6.6529816E1,1.3103912E1,2.5613792E1,1.0313812E1,0E0,1.9669895E1,1.0321763E1,3.4660645E0,0E0,5.424965E0,0E0,2.1477203E0,5.821345E0,1.0469666E0,7.0381966E0,5.672146E0,2.981977E0,0E0,0E0,1.9167972E0,0E0,0E0,0E0,0E0,0E0,0E0,0E0,0E0,0E0,0E0,0E0],"parents":[2147483647,0,0,1,1,2,2,3,3,5,5,6,6,7,7,9,9,11,11,12,12,13,13,14,14,15,15,16,16,19,19],"right_children":[2,4,6,8,-1,10,12,14,-1,16,-1,18,20,22,24,26,28,-1,-1,30,-1,-1,-1,-1,-1,-1,-1,-1,-1,-1,-1],"split_conditions":[6E-1,1.968504E-3,1.4E-1,6.1E-1,-1.17339104E-1,1.3755158E-3,4.950495E-3,1.52E2,-1.7417201E-1,1.44E2,-1.3947453E-1,7E-1,1.47E2,1.4836795E-3,2.9368575E-3,6.2E1,6.5019506E-4,-1.6634361E-1,1.6788937E-2,6.5E-1,-1.473762E-1,2.1552461E-1,8.201835E-2,6.2453452E-2,2.1128902E-1,1.8298605E-1,-7.880694E-2,-1.3057895E-1,1.323286E-1,-3.660229E-3,2.0729671E-1],"split_indices":[7,6,9,9,0,6,3,14,0,0,0,8,14,6,1,15,1,0,0,7,0,0,0,0,0,0,0,0,0,0,0],"split_type":[0,0,0,0,0,0,0,0,0,0,0,0,0,0,0,0,0,0,0,0,0,0,0,0,0,0,0,0,0,0,0],"sum_hessian":[6.539227E2,4.7807953E2,1.758432E2,4.7040298E2,7.6765566E0,1.03812874E2,7.2030334E1,4.6654776E2,3.8552194E0,8.595441E1,1.7858465E1,5.4431694E1,1.759864E1,3.8157068E2,8.497709E1,7.6498055E1,9.45635E0,5.0280186E1,4.1515102E0,1.2693402E1,4.905239E0,3.762358E2,5.3348684E0,3.3929787E1,5.1047302E1,7.147169E1,5.02637E0,6.05791E0,3.3984401E0,3.626833E0,9.066569E0],"tree_param":{"num_deleted":"0","num_feature":"17","num_nodes":"31","size_leaf_vector":"1"}},{"base_weights":[-3.3908612E-1,2.8873363E-1,-5.075135E-1,3.8182905E-1,-1.619337E-1,-5.733534E-1,-1.4971505E-1,-2.779008E-1,5.1094663E-1,-5.81006E-1,2.253219E-2,-3.1971866E-1,7.453304E-1,-1.459696E-1,-4.0877897E-2,8.306612E-2,6.7316514E-1,-1.5326564E-1,-4.3490064E-1,9.128534E-2,-3.9705026E-1,2.515873E-1,5.7541516E-2,5.329528E-2,-9.64352E-2,-4.0221054E-2,1.1793141E-1,2.0336342E-1,1.3342562E-1,-1.3782093E-1,1.0217667E-2,-1.2186392E-1,7.87936E-2],"categories":[],"categories_nodes":[],"categories_segments":[],"categories_sizes":[],"default_left":[0,0,0,0,0,0,0,0,0,0,0,0,0,0,0,0,0,0,0,0,0,0,0,0,0,0,0,0,0,0,0,0,0],"id":7,"left_children":[1,3,5,7,-1,9,11,13,15,17,-1,19,21,-1,23,25,27,-1,29,-1,31,-1,-1,-1,-1,-1,-1,-1,-1,-1,-1,-1,-1],"loss_changes":[5.5086052E1,9.884864E0,9.573235E0,8.760195E0,0E0,1.8088913E0,1.0140516E1,1.2243284E0,5.841551E0,1.3388824E0,0E0,3.078648E0,1.2059889E0,0E0,1.026271E0,2.399074E0,7.6862717E-1,0E0,3.6288557E0,0E0,3.3910475E0,0E0,0E0,0E0,0E0,0E0,0E0,0E0,0E0,0E0,0E0,0E0,0E0],"parents":[2147483647,0,0,1,1,2,2,3,3,5,5,6,6,7,7,8,8,9,9,11,11,12,12,14,14,15,15,16,16,18,18,20,20],"right_children":[2,4,6,8,-1,10,12,14,16,18,-1,20,22,-1,24,26,28,-1,30,-1,32,-1,-1,-1,-1,-1,-1,-1,-1,-1,-1,-1,-1],"split_conditions":[6E-1,8E-1,1.43E2,5.9E-1,-1.619337E-1,3.8262194E-1,5.9E-1,1.4E2,1.37E2,1.38E2,2.253219E-2,2.7E1,7.29927E-4,-1.459696E-1,1E0,1.7241379E-3,6.6E-1,-1.5326564E-1,8E0,9.128534E-2,8E0,2.515873E-1,5.7541516E-2,5.329528E-2,-9.64352E-2,-4.0221054E-2,1.1793141E-1,2.0336342E-1,1.3342562E-1,-1.3782093E-1,1.0217667E-2,-1.2186392E-1,7.87936E-2],"split_indices":[8,7,0,7,0,2,7,0,0,0,0,11,2,0,16,2,7,0,12,0,12,0,0,0,0,0,0,0,0,0,0,0,0],"split_type":[0,0,0,0,0,0,0,0,0,0,0,0,0,0,0,0,0,0,0,0,0,0,0,0,0,0,0,0,0,0,0,0,0],"sum_hessian":[5.185616E2,1.0953846E2,4.0902313E2,1.0017312E2,9.365337E0,3.4494586E2,6.407728E1,1.6207605E1,8.3965515E1,3.411356E2,3.8102818E0,5.4389423E1,9.687855E0,6.4351354E0,9.772471E0,2.3497824E1,6.046769E1,2.7703793E2,6.409765E1,5.140421E0,4.9249004E1,5.79612E0,3.8917348E0,5.8469872E0,3.925484E0,1.479685E1,8.700974E0,2.7720442E1,3.2747246E1,5.1367447E1,1.2730199E1,4.3979305E1,5.2696958E0],"tree_param":{"num_deleted":"0","num_feature":"17","num_nodes":"33","size_leaf_vector":"1"}},{"base_weights":[-4.4692102E-1,5.577926E-1,-5.2773637E-1,-6.915109E-2,6.8346983E-1,7.95715E-2,-5.77899E-1,1.9428809E-1,5.398953E-2,1.5840372E-1,-1.760978E-1,-5.901584E-1,1.741519E-1,-1.0431344E-1,6.9133095E-2,-5.9828985E-1,4.7676794E-2,7.723428E-2,-5.325366E-2,-9.101705E-2,-1.5324081E-1],"categories":[],"categories_nodes":[],"categories_segments":[],"categories_sizes":[],"default_left":[0,0,0,0,0,0,0,0,0,0,0,0,0,0,0,0,0,0,0,0,0],"id":8,"left_children":[1,3,5,-1,7,9,11,-1,-1,-1,13,15,-1,-1,17,19,-1,-1,-1,-1,-1],"loss_changes":[4.1019608E1,4.15588E0,1.4203842E1,0E0,1.2857552E0,5.259361E0,7.1207886E0,0E0,0E0,0E0,1.5458362E0,2.8181458E0,0E0,0E0,9.8449415E-1,1.2319946E0,0E0,0E0,0E0,0E0,0E0],"parents":[2147483647,0,0,1,1,2,2,4,4,5,5,6,6,10,10,11,11,14,14,15,15],"right_children":[2,4,6,-1,8,10,12,-1,-1,-1,14,16,-1,-1,18,20,-1,-1,-1,-1,-1],"split_conditions":[1.14E2,1.1600928E-3,4E-1,-6.915109E-2,1.4556041E-3,4.2E0,1.21E2,1.9428809E-1,5.398953E-2,1.5840372E-1,2E0,1.1778563E-2,1.741519E-1,-1.0431344E-1,5.9E0,5E-1,4.7676794E-2,7.723428E-2,-5.325366E-2,-9.101705E-2,-1.5324081E-1],"split_indices":[14,4,8,0,1,10,15,0,0,0,12,4,0,0,10,8,0,0,0,0,0],"split_type":[0,0,0,0,0,0,0,0,0,0,0,0,0,0,0,0,0,0,0,0,0],"sum_hessian":[5.0056512E2,3.6826637E1,4.637385E2,4.6633735E0,3.2163265E1,3.533682E1,4.2840167E2,2.6238293E1,5.924971E0,1.0690024E1,2.4646795E1,4.2485226E2,3.5494313E0,1.2071837E1,1.2574957E1,4.2070523E2,4.1470137E0,6.746048E0,5.828909E0,2.6426079E1,3.9427914E2],"tree_param":{"num_deleted":"0","num_feature":"17","num_nodes":"21","size_leaf_vector":"1"}},{"base_weights":[5.1256394E-1,6.671804E-1,9.175964E-2,6.921676E-1,-1.7204309E-1,3.5114235E-1,-3.278177E-1,7.016066E-1,-1.0604801E-1,1.5764827E-1,-1.3674903E-1,5.349625E-1,-1.5931083E-1,-1.5280682E-1,1.9921927E-1,7.4483E-1,6.329259E-1,5.871987E-1,-1.3012317E-1,-2.0552714E-1,6.6279507E-1,1.8925054E-1,1.0899841E-1,1.6231327E-1,3.7794095E-2,-9.567166E-2,1.575437E-1,7.167623E-2,-1.4392646E-1,2.1976148E-1,3.367825E-2],"categories":[],"categories_nodes":[],"categories_segments":[],"categories_sizes":[],"default_left":[0,0,0,0,0,0,0,0,0,0,0,0,0,0,0,0,0,0,0,0,0,0,0,0,0,0,0,0,0,0,0],"id":9,"left_children":[1,3,5,7,9,11,13,15,-1,-1,-1,17,-1,-1,19,21,23,25,-1,27,29,-1,-1,-1,-1,-1,-1,-1,-1,-1,-1],"loss_changes":[3.9985825E1,9.554672E0,1.8240694E1,4.904236E0,4.502307E0,1.9129215E1,9.704778E0,8.165741E-1,0E0,0E0,0E0,5.1429157E0,0E0,0E0,4.487004E0,6.555939E-1,1.2777481E0,3.7505665E0,0E0,2.5604084E0,1.1433835E0,0E0,0E0,0E0,0E0,0E0,0E0,0E0,0E0,0E0,0E0],"parents":[2147483647,0,0,1,1,2,2,3,3,4,4,5,5,6,6,7,7,11,11,14,14,15,15,16,16,17,17,19,19,20,20],"right_children":[2,4,6,8,10,12,14,16,-1,-1,-1,18,-1,-1,20,22,24,26,-1,28,30,-1,-1,-1,-1,-1,-1,-1,-1,-1,-1],"split_conditions":[6E-1,1.4164306E-3,1.4E-1,6E-1,1.05E2,1.3927576E-3,3.3726813E-3,4.3E-1,-1.0604801E-1,1.5764827E-1,-1.3674903E-1,7.6E-1,-1.5931083E-1,-1.5280682E-1,7E-1,7.936508E-4,1.9157087E-2,2.1E1,-1.3012317E-1,4.3E0,2.7E1,1.8925054E-1,1.0899841E-1,1.6231327E-1,3.7794095E-2,-9.567166E-2,1.575437E-1,7.167623E-2,-1.4392646E-1,2.1976148E-1,3.367825E-2],"split_indices":[7,6,9,9,11,6,3,7,0,0,0,7,0,0,7,6,2,11,0,10,11,0,0,0,0,0,0,0,0,0,0],"split_type":[0,0,0,0,0,0,0,0,0,0,0,0,0,0,0,0,0,0,0,0,0,0,0,0,0,0,0,0,0,0,0],"sum_hessian":[6.145093E2,4.4896146E2,1.655478E2,4.361507E2,1.2810781E1,1.0240447E2,6.3143337E1,4.3286243E2,3.288241E0,3.862162E0,8.948619E0,8.673358E1,1.5670894E1,4.0955326E1,2.2188011E1,2.5962518E2,1.7323724E2,8.3066376E1,3.6672037E0,1.2142813E1,1.0045198E1,2.4832362E2,1.1301577E1,1.6719986E2,6.0373764E0,3.1940503E0,7.987233E1,5.309252E0,6.833561E0,6.654265E0,3.3909335E0],"tree_param":{"num_deleted":"0","num_feature":"17","num_nodes":"31","size_leaf_vector":"1"}},{"base_weights":[-3.099616E-1,-5.32595E-1,8.198875E-2,-5.692522E-1,-2.3000379E-1,-3.7404218E-1,3.3583468E-1,-1.438856E-1,-3.266918E-2,-1.466183E-1,1.3229448E-1,-4.335652E-1,1.1273253E-1,-1.2541181E-1,6.136302E-1,-7.2485715E-2,5.9089214E-1,-1.462625E-1,-1.9420296E-1,-3.266232E-1,1.1545065E-1,7.132752E-1,-1.4441282E-1,2.1637426E-1,6.696397E-2,-1.3371079E-1,4.6481594E-2,-1.1236242E-1,6.629424E-2,-7.112446E-2,1.0006967E-1,1.9683951E-1,-9.1065876E-2],"categories":[],"categories_nodes":[],"categories_segments":[],"categories_sizes":[],"default_left":[0,0,0,0,0,0,0,0,0,0,0,0,0,0,0,0,0,0,0,0,0,0,0,0,0,0,0,0,0,0,0,0,0],"id":10,"left_children":[1,3,5,7,9,11,13,-1,-1,-1,15,17,-1,19,21,-1,23,-1,25,27,29,31,-1,-1,-1,-1,-1,-1,-1,-1,-1,-1,-1],"loss_changes":[4.020645E1,3.1264343E0,1.9526777E1,6.521225E-1,4.3930945E0,3.1618166E0,1.393982E1,0E0,0E0,0E0,3.5382745E0,1.9485035E0,0E0,2.0488849E0,8.448069E0,0E0,5.368612E-1,0E0,3.1476605E0,1.7823782E0,2.3502007E0,5.3148346E0,0E0,0E0,0E0,0E0,0E0,0E0,0E0,0E0,0E0,0E0,0E0],"parents":[2147483647,0,0,1,1,2,2,3,3,4,4,5,5,6,6,10,10,11,11,13,13,14,14,16,16,18,18,19,19,20,20,21,21],"right_children":[2,4,6,8,10,12,14,-1,-1,-1,16,18,-1,20,22,-1,24,-1,26,28,30,32,-1,-1,-1,-1,-1,-1,-1,-1,-1,-1,-1],"split_conditions":[7E-2,1.44E2,1.37E2,3.8262194E-1,4.3E-1,8.87574E-3,5.9E-1,-1.438856E-1,-3.266918E-2,-1.466183E-1,9.8E0,2.9E-1,1.1273253E-1,8E0,6.8E-1,-7.2485715E-2,1.46E2,-1.462625E-1,5.4E0,5.9E-1,1.52E2,7.9E-1,-1.4441282E-1,2.1637426E-1,6.696397E-2,-1.3371079E-1,4.6481594E-2,-1.1236242E-1,6.629424E-2,-7.112446E-2,1.0006967E-1,1.9683951E-1,-9.1065876E-2],"split_indices":[9,0,0,2,7,2,7,0,0,0,10,9,0,10,9,0,0,0,10,9,14,7,0,0,0,0,0,0,0,0,0,0,0],"split_type":[0,0,0,0,0,0,0,0,0,0,0,0,0,0,0,0,0,0,0,0,0,0,0,0,0,0,0,0,0,0,0,0,0],"sum_hessian":[4.5925925E2,2.926634E2,1.6659584E2,2.6025385E2,3.240955E1,5.940394E1,1.071919E2,2.5623245E2,4.0213757E0,1.6022902E1,1.638665E1,5.584904E1,3.5548954E0,4.049812E1,6.669379E1,8.72269E0,7.66396E0,3.33134E1,2.253564E1,2.1871267E1,1.862685E1,6.1916313E1,4.7774715E0,3.233982E0,4.429978E0,1.16698675E1,1.0865774E1,1.8310286E1,3.5609818E0,7.748524E0,1.0878326E1,5.8181343E1,3.7349691E0],"tree_param":{"num_deleted":"0","num_feature":"17","num_nodes":"33","size_leaf_vector":"1"}},{"base_weights":[-4.0418607E-1,4.0756318E-1,-4.787092E-1,-2.3809741E-1,6.3449234E-1,-5.265822E-1,1.7875122E-1,-1.4575239E-1,9.717946E-2,1.990272E-2,1.8219317E-1,-5.637075E-1,2.0779039E-1,-3.3374622E-1,-1.4837229E-1,-1.4235571E-1,1.2637195E-1],"categories":[],"categories_nodes":[],"categories_segments":[],"categories_sizes":[],"default_left":[0,0,0,0,0,0,0,0,0,0,0,0,0,0,0,0,0],"id":11,"left_children":[1,3,5,7,9,11,-1,-1,-1,-1,-1,13,-1,15,-1,-1,-1],"loss_changes":[2.6698456E1,5.627882E0,2.3335777E1,2.4860563E0,1.404295E0,1.9968178E1,0E0,0E0,0E0,0E0,0E0,2.3898697E0,0E0,9.3101E0,0E0,0E0,0E0],"parents":[2147483647,0,0,1,1,2,2,3,3,4,4,5,5,11,11,13,13],"right_children":[2,4,6,8,10,12,-1,-1,-1,-1,-1,14,-1,16,-1,-1,-1],"split_conditions":[1.14E2,1.16E2,6.9E-1,4.4014086E-3,3.5E-1,8E-1,1.7875122E-1,-1.4575239E-1,9.717946E-2,1.990272E-2,1.8219317E-1,1.25E2,2.0779039E-1,1.28E2,-1.4837229E-1,-1.4235571E-1,1.2637195E-1],"split_indices":[14,0,9,4,7,7,0,0,0,0,0,14,0,0,0,0,0],"split_type":[0,0,0,0,0,0,0,0,0,0,0,0,0,0,0,0,0],"sum_hessian":[4.371148E2,3.637947E1,4.0073535E2,9.448191E0,2.693128E1,3.8582208E2,1.4913275E1,6.1394024E0,3.3087885E0,4.1819544E0,2.2749325E1,3.7612308E2,9.69899E0,4.4601727E1,3.3152136E2,3.507228E1,9.529447E0],"tree_param":{"num_deleted":"0","num_feature":"17","num_nodes":"17","size_leaf_vector":"1"}},{"base_weights":[4.4528693E-1,5.962745E-1,7.7129625E-2,6.480995E-1,3.8047665E-1,-1.6141431E-1,3.8295344E-1,6.617627E-1,5.9846148E-2,1.15707114E-1,5.0349075E-1,-1.2339262E-1,-4.69527E-2,-2.7826434E-1,5.1487595E-1,2.091664E-2,6.67695E-1,9.7113594E-2,-5.558331E-2,-2.7778992E-1,3.0067843E-1,1.4574617E-1,2.5899142E-1,1.2507328E-1,-2.151705E-1,-1.4942347E-1,1.18509546E-1,1.5774088E-1,-1.0813352E-1,1.683027E-1,4.4503726E-2,-1.6886619E-1,6.0906943E-2,-6.649616E-3,1.2183318E-1,-1.9822918E-2,1.260952E-1,-1.4200679E-2,-1.2281409E-1,-1.15631156E-1,8.967202E-2],"categories":[],"categories_nodes":[],"categories_segments":[],"categories_sizes":[],"default_left":[0,0,0,0,0,0,0,0,0,0,0,0,0,0,0,0,0,0,0,0,0,0,0,0,0,0,0,0,0,0,0,0,0,0,0,0,0,0,0,0,0],"id":12,"left_children":[1,3,5,7,9,11,13,15,17,19,21,-1,23,25,27,-1,29,-1,-1,31,33,-1,35,-1,37,-1,-1,-1,39,-1,-1,-1,-1,-1,-1,-1,-1,-1,-1,-1,-1],"loss_changes":[3.1006462E1,4.182266E0,1.199821E1,2.5154724E0,2.5183296E0,3.4988334E0,6.423353E0,1.0092468E0,8.576122E-1,2.0045857E0,8.937826E-1,0E0,6.5516157E0,3.317802E0,4.4368687E0,0E0,7.202606E-1,0E0,0E0,2.0227625E0,1.1393623E0,0E0,1.2842829E0,0E0,2.3438535E0,0E0,0E0,0E0,1.8769723E0,0E0,0E0,0E0,0E0,0E0,0E0,0E0,0E0,0E0,0E0,0E0,0E0],"parents":[2147483647,0,0,1,1,2,2,3,3,4,4,5,5,6,6,7,7,8,8,9,9,10,10,12,12,13,13,14,14,16,16,19,19,20,20,22,22,24,24,28,28],"right_children":[2,4,6,8,10,12,14,16,18,20,22,-1,24,26,28,-1,30,-1,-1,32,34,-1,36,-1,38,-1,-1,-1,40,-1,-1,-1,-1,-1,-1,-1,-1,-1,-1,-1,-1],"split_conditions":[5.9E-1,1.52E2,4.901961E-3,1.2E1,4.3E1,1.37E2,1E-1,1.11E2,1.3E2,1.46E2,1.1E1,-1.2339262E-1,1.36E2,1.17E2,1.48E2,2.091664E-2,1.0638298E-2,9.7113594E-2,-5.558331E-2,4.878049E-3,2E1,1.4574617E-1,9.1E1,1.2507328E-1,1.45E2,-1.4942347E-1,1.18509546E-1,1.5774088E-1,7.7669905E-3,1.683027E-1,4.4503726E-2,-1.6886619E-1,6.0906943E-2,-6.649616E-3,1.2183318E-1,-1.9822918E-2,1.260952E-1,-1.4200679E-2,-1.2281409E-1,-1.15631156E-1,8.967202E-2],"split_indices":[7,14,3,12,11,14,10,14,0,0,10,0,0,14,14,0,3,0,0,3,11,0,11,0,0,0,0,0,3,0,0,0,0,0,0,0,0,0,0,0,0],"split_type":[0,0,0,0,0,0,0,0,0,0,0,0,0,0,0,0,0,0,0,0,0,0,0,0,0,0,0,0,0,0,0,0,0,0,0,0,0,0,0,0,0],"sum_hessian":[5.576264E2,3.950075E2,1.6261893E2,3.168992E2,7.81083E1,9.162399E1,7.099493E1,3.0958362E2,7.315593E0,2.5393387E1,5.271491E1,2.2630417E1,6.8993576E1,1.1624031E1,5.9370895E1,3.2980578E0,3.0628555E2,3.2056715E0,4.1099215E0,7.959346E0,1.7434042E1,3.872902E1,1.398589E1,1.5756256E1,5.3237324E1,8.303422E0,3.3206096E0,5.0030556E1,9.340343E0,3.024616E2,3.8239565E0,4.3475995E0,3.6117465E0,6.6443768E0,1.0789664E1,6.165234E0,7.820657E0,3.460009E1,1.8637232E1,5.3146505E0,4.025693E0],"tree_param":{"num_deleted":"0","num_feature":"17","num_nodes":"41","size_leaf_vector":"1"}},{"base_weights":[-2.5604463E-1,1.847739E-1,-4.5036077E-1,-1.3644953E-1,3.363953E-1,-4.810827E-1,3.1905708E-1,-3.119728E-1,4.4197658E-1,4.9963114E-1,1.2545052E-2,-3.724823E-1,-1.4198427E-1,1.8202926E-1,-1.1807544E-1,-1.3877624E-1,-1.1390674E-1,2.0833835E-1,3.5444062E-2,3.9064493E-2,5.928777E-1,1.3775118E-1,-1.0448329E-1,-4.834268E-1,-9.903001E-2,3.2942906E-2,-1.4242426E-1,6.801263E-2,-7.4930824E-2,1.8915386E-1,1.083196E-1,-1.9719644E-2,1.05731174E-1,-1.2839556E-1,5.9305873E-2,2.88843E-2,-1.1154857E-1],"categories":[],"categories_nodes":[],"categories_segments":[],"categories_sizes":[],"default_left":[0,0,0,0,0,0,0,0,0,0,0,0,0,0,0,0,0,0,0,0,0,0,0,0,0,0,0,0,0,0,0,0,0,0,0,0,0],"id":13,"left_children":[1,3,5,7,9,11,13,15,17,19,21,23,-1,-1,-1,25,-1,-1,-1,27,29,31,-1,33,35,-1,-1,-1,-1,-1,-1,-1,-1,-1,-1,-1,-1],"loss_changes":[3.4891346E1,6.135556E0,6.8271523E0,4.280629E0,4.4992666E0,2.354679E0,4.048587E0,7.304785E-1,1.0467404E0,2.40934E0,1.6524959E0,3.706997E0,0E0,0E0,0E0,1.9290314E0,0E0,0E0,0E0,9.189867E-1,9.0143967E-1,1.4961553E0,0E0,2.0329666E0,2.8066685E0,0E0,0E0,0E0,0E0,0E0,0E0,0E0,0E0,0E0,0E0,0E0,0E0],"parents":[2147483647,0,0,1,1,2,2,3,3,4,4,5,5,6,6,7,7,8,8,9,9,10,10,11,11,15,15,19,19,20,20,21,21,23,23,24,24],"right_children":[2,4,6,8,10,12,14,16,18,20,22,24,-1,-1,-1,26,-1,-1,-1,28,30,32,-1,34,36,-1,-1,-1,-1,-1,-1,-1,-1,-1,-1,-1,-1],"split_conditions":[7E-1,1.37E2,1.5E2,4E0,1.47E2,2.020202E-3,1.572327E-3,5E-1,1.28E2,5.9E-1,7.1E-1,1.38E2,-1.4198427E-1,1.8202926E-1,-1.1807544E-1,7.4E-1,-1.1390674E-1,2.0833835E-1,3.5444062E-2,3E0,6.6E-1,6E-1,-1.0448329E-1,4E-2,1.2804097E-3,3.2942906E-2,-1.4242426E-1,6.801263E-2,-7.4930824E-2,1.8915386E-1,1.083196E-1,-1.9719644E-2,1.05731174E-1,-1.2839556E-1,5.9305873E-2,2.88843E-2,-1.1154857E-1],"split_indices":[8,0,0,12,0,1,1,8,0,7,7,0,0,0,0,7,0,0,0,12,7,7,0,2,4,0,0,0,0,0,0,0,0,0,0,0,0],"split_type":[0,0,0,0,0,0,0,0,0,0,0,0,0,0,0,0,0,0,0,0,0,0,0,0,0,0,0,0,0,0,0,0,0,0,0,0,0],"sum_hessian":[4.05361E2,1.24033104E2,2.8132788E2,3.9804268E1,8.4228836E1,2.7088647E2,1.0441424E1,3.0891039E1,8.913227E0,5.5640568E1,2.8588266E1,1.227677E2,1.4811876E2,6.9357357E0,3.5056884E0,1.4899243E1,1.59917965E1,3.0974984E0,5.815728E0,9.607213E0,4.6033356E1,2.2674103E1,5.9141636E0,8.678827E1,3.5979427E1,9.579566E0,5.3196774E0,5.8091187E0,3.7980943E0,2.0866974E1,2.516638E1,1.3297397E1,9.376706E0,8.35726E1,3.2156725E0,2.2649199E1,1.333023E1],"tree_param":{"num_deleted":"0","num_feature":"17","num_nodes":"37","size_leaf_vector":"1"}},{"base_weights":[-3.6457035E-1,-4.063187E-1,6.357969E-1,4.3018583E-2,-4.5509613E-1,1.8585755E-1,4.772553E-2,-3.157638E-1,5.619127E-1,-3.1983384E-1,-5.717766E-1,-4.0797064E-1,4.5323037E-2,1.7511892E-1,4.681703E-2,-4.4694743E-1,-1.776958E-2,-1.4526099E-1,-1.3884409E-2,-1.3002509E-1,2.7802318E-2,-1.2100055E-1,-4.1318107E-3,8.353165E-2,-1.1414752E-1],"categories":[],"categories_nodes":[],"categories_segments":[],"categories_sizes":[],"default_left":[0,0,0,0,0,0,0,0,0,0,0,0,0,0,0,0,0,0,0,0,0,0,0,0,0],"id":14,"left_children":[1,3,5,7,9,-1,-1,11,13,15,17,19,-1,-1,-1,21,23,-1,-1,-1,-1,-1,-1,-1,-1],"loss_changes":[1.5966595E1,7.946369E0,5.987363E-1,6.9408646E0,4.9675064E0,0E0,0E0,1.0877459E0,6.587758E-1,5.882186E0,8.050804E-1,1.1624663E0,0E0,0E0,0E0,1.7155933E0,7.330838E0,0E0,0E0,0E0,0E0,0E0,0E0,0E0,0E0],"parents":[2147483647,0,0,1,1,2,2,3,3,4,4,7,7,8,8,9,9,10,10,11,11,15,15,16,16],"right_children":[2,4,6,8,10,-1,-1,12,14,16,18,20,-1,-1,-1,22,24,-1,-1,-1,-1,-1,-1,-1,-1],"split_conditions":[6.9E-1,0E0,1.7667845E-3,9.9E1,1.0834236E-3,1.8585755E-1,4.772553E-2,1.1299435E-3,5.221932E-3,9E1,1.004016E-2,1.4E2,4.5323037E-2,1.7511892E-1,4.681703E-2,1.5E2,1.34E2,-1.4526099E-1,-1.3884409E-2,-1.3002509E-1,2.7802318E-2,-1.2100055E-1,-4.1318107E-3,8.353165E-2,-1.1414752E-1],"split_indices":[9,16,3,11,1,0,0,4,3,11,4,0,0,0,0,0,0,0,0,0,0,0,0,0,0],"split_type":[0,0,0,0,0,0,0,0,0,0,0,0,0,0,0,0,0,0,0,0,0,0,0,0,0],"sum_hessian":[3.751224E2,3.606646E2,1.4457795E1,3.5329327E1,3.253353E2,1.1099297E1,3.358499E0,2.111861E1,1.4210714E1,1.5240283E2,1.7293245E2,1.7965317E1,3.1532943E0,9.737338E0,4.4733763E0,1.0692669E2,4.547614E1,1.6974042E2,3.1920357E0,1.4771725E1,3.1935918E0,9.832605E1,8.600639E0,2.53702E1,2.010594E1],"tree_param":{"num_deleted":"0","num_feature":"17","num_nodes":"25","size_leaf_vector":"1"}},{"base_weights":[3.8513386E-1,1.8375832E-1,6.11223E-1,2.5023E-1,-4.1021135E-1,1.5621497E-1,-5.63458E-2,3.6494073E-1,-2.2488673E-1,-1.1324783E-2,-1.6122626E-1,-5.1743765E-3,5.3571016E-1,-5.7821715E-1,-5.9382312E-2,-8.2092576E-2,1.4494772E-1,8.117325E-2,-7.9075314E-2,1.4143805E-1,1.6126879E-2,-2.0350982E-1,-7.162484E-2,7.570154E-3,-1.6482782E-1],"categories":[],"categories_nodes":[],"categories_segments":[],"categories_sizes":[],"default_left":[0,0,0,0,0,0,0,0,0,0,0,0,0,0,0,0,0,0,0,0,0,0,0,0,0],"id":15,"left_children":[1,3,5,7,9,-1,-1,11,13,15,-1,17,19,21,23,-1,-1,-1,-1,-1,-1,-1,-1,-1,-1],"loss_changes":[2.321061E1,1.0856475E1,2.9019241E0,1.346638E1,2.595231E0,0E0,0E0,1.2529861E1,2.7947834E0,2.3113391E0,0E0,6.627913E0,1.8871269E0,8.2078695E-1,1.8524326E0,0E0,0E0,0E0,0E0,0E0,0E0,0E0,0E0,0E0,0E0],"parents":[2147483647,0,0,1,1,2,2,3,3,4,4,7,7,8,8,9,9,11,11,12,12,13,13,14,14],"right_children":[2,4,6,8,10,-1,-1,12,14,16,-1,18,20,22,24,-1,-1,-1,-1,-1,-1,-1,-1,-1,-1],"split_conditions":[1.7182131E-3,9.6153846E-4,1.9305019E-3,1.51E2,1.29E2,1.5621497E-1,-5.63458E-2,2.1574972E-3,1.46E2,7.6726344E-3,-1.6122626E-1,1.4E-1,5.5E1,3.8350911E-3,6E0,-8.2092576E-2,1.4494772E-1,8.117325E-2,-7.9075314E-2,1.4143805E-1,1.6126879E-2,-2.0350982E-1,-7.162484E-2,7.570154E-3,-1.6482782E-1],"split_indices":[1,6,6,14,0,0,0,3,0,3,0,9,15,3,12,0,0,0,0,0,0,0,0,0,0],"split_type":[0,0,0,0,0,0,0,0,0,0,0,0,0,0,0,0,0,0,0,0,0,0,0,0,0],"sum_hessian":[5.1126718E2,2.7137164E2,2.3989555E2,2.4457925E2,2.6792383E1,2.3627953E2,3.6160302E0,1.9719983E2,4.7379417E1,1.0314647E1,1.6477737E1,6.256658E1,1.3463326E2,1.4318218E1,3.30612E1,7.0030317E0,3.3116148E0,3.0347563E1,3.221902E1,1.2636079E2,8.272465E0,6.9258566E0,7.392361E0,2.9588839E1,3.4723608E0],"tree_param":{"num_deleted":"0","num_feature":"17","num_nodes":"25","size_leaf_vector":"1"}},{"base_weights":[-2.175203E-1,-4.539949E-1,1.3315222E-1,-5.6618378E-2,-5.0285137E-1,-1.9403037E-1,3.024942E-1,8.540255E-2,-1.3329932E-1,-5.173466E-1,5.3752046E-2,-1.1370137E-1,-2.6183542E-2,3.925107E-1,-1.4060281E-1,-1.3514498E-1,3.0453607E-2,-1.3282621E-1,-2.0295253E-2,5.8812633E-2,-9.5549576E-2,4.421354E-1,-1.3536018E-1,-4.066633E-2,8.524149E-2,-3.530381E-2,5.4703522E-2,2.2382453E-2,1.3004418E-1],"categories":[],"categories_nodes":[],"categories_segments":[],"categories_sizes":[],"default_left":[0,0,0,0,0,0,0,0,0,0,0,0,0,0,0,0,0,0,0,0,0,0,0,0,0,0,0,0,0],"id":16,"left_children":[1,3,5,7,9,11,13,-1,15,17,-1,-1,19,21,-1,-1,23,-1,-1,25,-1,27,-1,-1,-1,-1,-1,-1,-1],"loss_changes":[2.9613321E1,4.1082306E0,8.054073E0,7.92395E-1,2.0844002E0,2.1693459E0,7.65497E0,0E0,1.4323215E0,1.094532E0,0E0,0E0,9.720516E-1,4.2750616E0,0E0,0E0,1.0203167E0,0E0,0E0,8.6950916E-1,0E0,2.2451305E0,0E0,0E0,0E0,0E0,0E0,0E0,0E0],"parents":[2147483647,0,0,1,1,2,2,3,3,4,4,5,5,6,6,8,8,9,9,12,12,13,13,16,16,19,19,21,21],"right_children":[2,4,6,8,10,12,14,-1,16,18,-1,-1,20,22,-1,-1,24,-1,-1,26,-1,28,-1,-1,-1,-1,-1,-1,-1],"split_conditions":[7E-2,7E-1,5.6E-1,2.2E1,4.4E0,4.3E-1,6.9E-1,8.540255E-2,5E-1,1.2E1,5.3752046E-2,-1.1370137E-1,5.4E-1,8E-1,-1.4060281E-1,-1.3514498E-1,4.5E1,-1.3282621E-1,-2.0295253E-2,2E0,-9.5549576E-2,6E-1,-1.3536018E-1,-4.066633E-2,8.524149E-2,-3.530381E-2,5.4703522E-2,2.2382453E-2,1.3004418E-1],"split_indices":[9,8,7,11,8,7,9,0,8,12,0,0,7,7,0,0,11,0,0,12,0,7,0,0,0,0,0,0,0],"split_type":[0,0,0,0,0,0,0,0,0,0,0,0,0,0,0,0,0,0,0,0,0,0,0,0,0,0,0,0,0],"sum_hessian":[3.5538007E2,2.120741E2,1.4330595E2,2.3455597E1,1.886185E2,4.8825428E1,9.448052E1,3.229084E0,2.0226513E1,1.8515915E2,3.4593496E0,1.8448296E1,3.0377134E1,8.6069496E1,8.411032E0,5.1397853E0,1.5086728E1,1.7918452E2,5.9746265E0,2.519699E1,5.1801443E0,8.2227295E1,3.842194E0,9.595337E0,5.491391E0,1.1250463E1,1.39465275E1,1.5298852E1,6.6928444E1],"tree_param":{"num_deleted":"0","num_feature":"17","num_nodes":"29","size_leaf_vector":"1"}},{"base_weights":[-3.380893E-1,2.9823574E-1,-4.0303576E-1,1.3975587E-1,-1.2620738E-1,-2.3842472E-1,-1.4124435E-1,-3.204652E-1,3.5708067E-1,9.092112E-2,-3.9890283E-1,1.5682827E-1,1.8987706E-1,1.4290516E-1,-9.887588E-2,-1.1170931E-1,-3.4883335E-2,1.3613325E-1,-6.2340196E-2],"categories":[],"categories_nodes":[],"categories_segments":[],"categories_sizes":[],"default_left":[0,0,0,0,0,0,0,0,0,0,0,0,0,0,0,0,0,0,0],"id":17,"left_children":[1,3,5,-1,-1,7,-1,9,11,13,15,17,-1,-1,-1,-1,-1,-1,-1],"loss_changes":[1.3755207E1,6.803688E0,7.8599358E0,0E0,0E0,7.46379E0,0E0,4.319628E0,1.3871579E0,5.387901E0,1.3272495E0,2.2999501E0,0E0,0E0,0E0,0E0,0E0,0E0,0E0],"parents":[2147483647,0,0,1,1,2,2,5,5,7,7,8,8,9,9,10,10,11,11],"right_children":[2,4,6,-1,-1,8,-1,10,12,14,16,18,-1,-1,-1,-1,-1,-1,-1],"split_conditions":[1E-1,4.830918E-3,8.474576E-4,1.3975587E-1,-1.2620738E-1,4.5E1,-1.4124435E-1,4E0,9.8E1,2E0,1.48E2,6E0,1.8987706E-1,1.4290516E-1,-9.887588E-2,-1.1170931E-1,-3.4883335E-2,1.3613325E-1,-6.2340196E-2],"split_indices":[10,1,1,0,0,15,0,10,15,12,0,12,0,0,0,0,0,0,0],"split_type":[0,0,0,0,0,0,0,0,0,0,0,0,0,0,0,0,0,0,0],"sum_hessian":[3.289291E2,3.0130266E1,2.9879883E2,2.2972795E1,7.1574717E0,1.4943037E2,1.4936847E2,1.3174257E2,1.7687807E1,2.1071024E1,1.1067155E2,1.2739386E1,4.948422E0,1.0509578E1,1.0561445E1,9.278395E1,1.7887602E1,6.3434653E0,6.3959203E0],"tree_param":{"num_deleted":"0","num_feature":"17","num_nodes":"19","size_leaf_vector":"1"}},{"base_weights":[3.494103E-1,4.8211288E-1,1.2297026E-2,5.437237E-1,2.6206604E-1,2.4980482E-1,-2.593962E-1,5.659295E-1,-1.3723841E-1,1.5323946E-1,1.4109375E-1,-1.2429226E-1,3.0974758E-1,-4.642193E-1,1.5095714E-1,5.777712E-1,6.1163714E-4,-1.1121718E-1,7.730687E-2,2.3886879E-1,-4.4107628E-1,3.5898435E-1,-1.0835619E-1,-1.0934836E-1,-1.3860995E-1,-1.7738271E-1,1.5309058E-1,1.511499E-1,9.370352E-2,2.2017501E-2,1.0174891E-1,-1.8391013E-1,-1.0718912E-2,1.0197458E-1,-7.192308E-2,8.969735E-2,-1.0434149E-1,1.4363533E-1,-1.196155E-1],"categories":[],"categories_nodes":[],"categories_segments":[],"categories_sizes":[],"default_left":[0,0,0,0,0,0,0,0,0,0,0,0,0,0,0,0,0,0,0,0,0,0,0,0,0,0,0,0,0,0,0,0,0,0,0,0,0,0,0],"id":18,"left_children":[1,3,5,7,9,11,13,15,17,19,-1,-1,21,23,25,27,-1,-1,-1,29,31,33,-1,35,-1,37,-1,-1,-1,-1,-1,-1,-1,-1,-1,-1,-1,-1,-1],"loss_changes":[2.0453629E1,4.306137E0,8.466854E0,3.9400787E0,2.3389053E0,3.2877502E0,5.215825E0,1.6504364E0,1.356279E0,2.9335246E0,0E0,0E0,2.5488453E0,1.2555485E0,3.3115222E0,1.0962677E0,0E0,0E0,0E0,1.2123516E0,8.3077705E-1,2.076591E0,0E0,1.5310963E0,0E0,3.2472973E0,0E0,0E0,0E0,0E0,0E0,0E0,0E0,0E0,0E0,0E0,0E0,0E0,0E0],"parents":[2147483647,0,0,1,1,2,2,3,3,4,4,5,5,6,6,7,7,8,8,9,9,12,12,13,13,14,14,15,15,19,19,20,20,21,21,23,23,25,25],"right_children":[2,4,6,8,10,12,14,16,18,20,-1,-1,22,24,26,28,-1,-1,-1,30,32,34,-1,36,-1,38,-1,-1,-1,-1,-1,-1,-1,-1,-1,-1,-1,-1,-1],"split_conditions":[6E-1,1.52E2,7E-2,1.03E2,1.5E1,1.04E2,3.3726813E-3,3.9E-1,1.3E2,6E0,1.4109375E-1,-1.2429226E-1,7.4E-1,1.4E-1,7E-1,4.5E1,6.1163714E-4,-1.1121718E-1,7.730687E-2,4.3E1,3.8350911E-3,7.2E1,-1.0835619E-1,1.42E2,-1.3860995E-1,1.28E2,1.5309058E-1,1.511499E-1,9.370352E-2,2.2017501E-2,1.0174891E-1,-1.8391013E-1,-1.0718912E-2,1.0197458E-1,-7.192308E-2,8.969735E-2,-1.0434149E-1,1.4363533E-1,-1.196155E-1],"split_indices":[7,14,9,15,15,14,3,9,14,12,0,0,7,9,7,15,0,0,0,11,3,15,0,14,0,0,0,0,0,0,0,0,0,0,0,0,0,0,0],"split_type":[0,0,0,0,0,0,0,0,0,0,0,0,0,0,0,0,0,0,0,0,0,0,0,0,0,0,0,0,0,0,0,0,0,0,0,0,0,0,0],"sum_hessian":[4.563418E2,3.271364E2,1.2920538E2,2.5442824E2,7.270816E1,6.89828E1,6.0222576E1,2.4655708E2,7.8711677E0,5.457316E1,1.8135004E1,4.582275E0,6.440053E1,4.0083897E1,2.0138678E1,2.4145746E2,5.0996227E0,4.662114E0,3.2090535E0,4.822321E1,6.349947E0,6.0884052E1,3.5164776E0,8.577501E0,3.1506395E1,1.2126278E1,8.0124E0,2.1145703E2,3.0000423E1,2.6228678E1,2.1994532E1,3.162381E0,3.187566E0,5.694274E1,3.9413095E0,3.3387065E0,5.2387953E0,3.2077239E0,8.918554E0],"tree_param":{"num_deleted":"0","num_feature":"17","num_nodes":"39","size_leaf_vector":"1"}},{"base_weights":[-2.059735E-1,-4.1170138E-1,7.692945E-2,-2.4173822E-1,-1.315471E-1,1.2991221E-1,-1.4034006E-1,-3.985233E-1,6.535793E-1,2.477341E-1,-2.4065377E-1,-4.6536896E-1,1.1649135E-1,7.6709025E-2,2.2675095E-1,-3.6064524E-2,3.4703356E-1,-1.3196826E-1,-8.179318E-2,-4.0208973E-2,-1.325508E-1,9.868496E-2,-4.1031364E-2,7.407855E-2,1.9400428E-1,9.846962E-3,-8.5566685E-2],"categories":[],"categories_nodes":[],"categories_segments":[],"categories_sizes":[],"default_left":[0,0,0,0,0,0,0,0,0,0,0,0,0,0,0,0,0,0,0,0,0,0,0,0,0,0,0],"id":19,"left_children":[1,3,5,7,-1,9,-1,11,13,15,17,19,-1,-1,-1,21,23,-1,25,-1,-1,-1,-1,-1,-1,-1,-1],"loss_changes":[1.8756168E1,3.50202E0,4.6826673E0,1.1055605E1,0E0,5.5898232E0,0E0,4.0347652E0,7.6225615E-1,2.7347703E0,1.374476E0,1.1363001E0,0E0,0E0,0E0,1.4964466E0,1.3284149E0,0E0,6.823228E-1,0E0,0E0,0E0,0E0,0E0,0E0,0E0,0E0],"parents":[2147483647,0,0,1,1,2,2,3,3,5,5,7,7,8,8,9,9,10,10,11,11,15,15,16,16,18,18],"right_children":[2,4,6,8,-1,10,-1,12,14,16,18,20,-1,-1,-1,22,24,-1,26,-1,-1,-1,-1,-1,-1,-1,-1],"split_conditions":[7E-2,1.5267176E-3,6.9E-1,1.51E2,-1.315471E-1,8.3402835E-4,-1.4034006E-1,1.37E2,3E0,1.4E2,1.41E2,7E-1,1.1649135E-1,7.6709025E-2,2.2675095E-1,4E-1,6E-1,-1.3196826E-1,2.244669E-3,-4.0208973E-2,-1.325508E-1,9.868496E-2,-4.1031364E-2,7.407855E-2,1.9400428E-1,9.846962E-3,-8.5566685E-2],"split_indices":[9,1,9,14,0,1,0,11,15,14,14,8,0,0,0,8,9,0,1,0,0,0,0,0,0,0,0],"split_type":[0,0,0,0,0,0,0,0,0,0,0,0,0,0,0,0,0,0,0,0,0,0,0,0,0,0,0],"sum_hessian":[3.2072104E2,1.8542451E2,1.3529654E2,7.590354E1,1.0952097E2,1.2566299E2,9.633547E0,6.506453E1,1.0839009E1,9.559873E1,3.0064257E1,6.0823395E1,4.241136E0,5.5116434E0,5.327366E0,2.4944365E1,7.0654366E1,9.878129E0,2.0186129E1,1.1295013E1,4.952838E1,5.2388544E0,1.970551E1,6.470122E1,5.953151E0,1.435647E1,5.829658E0],"tree_param":{"num_deleted":"0","num_feature":"17","num_nodes":"27","size_leaf_vector":"1"}},{"base_weights":[-3.0791512E-1,7.500797E-2,-4.3341014E-1,-1.721331E-1,6.411582E-1,-4.9315983E-1,1.6696154E-1,-3.2934886E-1,4.8931107E-1,2.74373E-2,1.806665E-1,-1.3289298E-1,1.613376E-1,8.452806E-2,-4.50916E-1,1.7607301E-1,3.247672E-2,-1.3291214E-1,4.397152E-2],"categories":[],"categories_nodes":[],"categories_segments":[],"categories_sizes":[],"default_left":[0,0,0,0,0,0,0,0,0,0,0,0,0,0,0,0,0,0,0],"id":20,"left_children":[1,3,5,7,9,11,-1,13,15,-1,-1,-1,-1,-1,17,-1,-1,-1,-1],"loss_changes":[1.411097E1,1.0347749E1,1.4858818E1,5.539613E0,8.9371586E-1,9.540802E0,0E0,3.5919352E0,7.07247E-1,0E0,0E0,0E0,0E0,0E0,1.9309206E0,0E0,0E0,0E0,0E0],"parents":[2147483647,0,0,1,1,2,2,3,3,4,4,5,5,7,7,8,8,14,14],"right_children":[2,4,6,8,10,12,-1,14,16,-1,-1,-1,-1,-1,18,-1,-1,-1,-1],"split_conditions":[1.26E2,1.29E2,6.9E-1,6.6E-1,3E-1,8E-1,1.6696154E-1,1.08E2,7E-2,2.74373E-2,1.806665E-1,-1.3289298E-1,1.613376E-1,8.452806E-2,1.28E2,1.7607301E-1,3.247672E-2,-1.3291214E-1,4.397152E-2],"split_indices":[14,0,9,7,7,7,0,14,9,0,0,0,0,0,0,0,0,0,0],"split_type":[0,0,0,0,0,0,0,0,0,0,0,0,0,0,0,0,0,0,0],"sum_hessian":[2.9196594E2,7.216652E1,2.1979942E2,5.07212E1,2.144532E1,2.0901218E2,1.0787248E1,4.1386337E1,9.334861E0,3.1662824E0,1.827904E1,2.0269734E2,6.3148403E0,6.1017227E0,3.5284615E1,5.2396736E0,4.0951867E0,3.1390654E1,3.8939605E0],"tree_param":{"num_deleted":"0","num_feature":"17","num_nodes":"19","size_leaf_vector":"1"}},{"base_weights":[3.097977E-1,1.169847E-1,5.4745746E-1,4.2251402E-1,-1.4159315E-2,-1.3098972E-3,1.3989408E-1,4.9547783E-1,-1.7840585E-1,-1.7828818E-1,2.018437E-1,1.3374832E-1,-5.0717026E-2,1.1790716E-1,-3.7042895E-1,3.0852693E-1,-3.727925E-1,7.503497E-2,-6.6002615E-2,-1.0600432E-1,5.659718E-5,-6.47294E-2,9.317012E-2,-4.3428345E-3,-1.2811153E-1],"categories":[],"categories_nodes":[],"categories_segments":[],"categories_sizes":[],"default_left":[0,0,0,0,0,0,0,0,0,0,0,0,0,0,0,0,0,0,0,0,0,0,0,0,0],"id":21,"left_children":[1,3,5,7,9,-1,-1,11,-1,13,15,-1,-1,17,19,21,23,-1,-1,-1,-1,-1,-1,-1,-1],"loss_changes":[1.8125313E1,8.837796E0,1.1975136E0,5.844205E0,5.5377975E0,0E0,0E0,1.844614E0,0E0,5.092514E0,4.251488E0,0E0,0E0,2.561986E0,1.0745387E0,2.1894522E0,5.381956E-1,0E0,0E0,0E0,0E0,0E0,0E0,0E0,0E0],"parents":[2147483647,0,0,1,1,2,2,3,3,4,4,7,7,9,9,10,10,13,13,14,14,15,15,16,16],"right_children":[2,4,6,8,10,-1,-1,12,-1,14,16,-1,-1,18,20,22,24,-1,-1,-1,-1,-1,-1,-1,-1],"split_conditions":[1.7182131E-3,4.3E-1,2.7E1,1.351126E-1,4.7003524E-3,-1.3098972E-3,1.3989408E-1,9.2E1,-1.7840585E-1,5.9E-1,1.05E2,1.3374832E-1,-5.0717026E-2,5E0,5.719733E-3,4.9E-1,3.8E1,7.503497E-2,-6.6002615E-2,-1.0600432E-1,5.659718E-5,-6.47294E-2,9.317012E-2,-4.3428345E-3,-1.2811153E-1],"split_indices":[1,7,11,2,3,0,0,15,0,7,11,0,0,15,4,7,15,0,0,0,0,0,0,0,0],"split_type":[0,0,0,0,0,0,0,0,0,0,0,0,0,0,0,0,0,0,0,0,0,0,0,0,0],"sum_hessian":[3.9594055E2,2.1941872E2,1.7652185E2,6.522972E1,1.5418898E2,3.817012E0,1.7270483E2,6.1823532E1,3.4061935E0,8.77143E1,6.6474686E1,5.872977E1,3.0937603E0,3.4664093E1,5.305021E1,5.645644E1,1.0018246E1,2.3611052E1,1.1053041E1,4.6218643E1,6.8315644E0,5.4289284E0,5.102751E1,3.1440153E0,6.874231E0],"tree_param":{"num_deleted":"0","num_feature":"17","num_nodes":"25","size_leaf_vector":"1"}},{"base_weights":[-1.5968184E-1,-3.9272225E-1,1.1849856E-1,-4.4397748E-1,-5.5016153E-2,-1.16417944E-1,1.9460647E-1,-4.6242526E-1,4.707158E-2,4.4906476E-1,-1.25417E-1,2.4807863E-1,-1.3058503E-1,-2.1428758E-1,-5.063685E-1,3.5402343E-2,1.7458208E-1,3.547533E-2,3.8551646E-1,-9.456784E-2,7.0020065E-2,-1.3072589E-1,-8.831727E-3,-1.1652855E-2,1.9591798E-1,1.12263635E-1,-1.2944716E-1],"categories":[],"categories_nodes":[],"categories_segments":[],"categories_sizes":[],"default_left":[0,0,0,0,0,0,0,0,0,0,0,0,0,0,0,0,0,0,0,0,0,0,0,0,0,0,0],"id":22,"left_children":[1,3,5,7,9,-1,11,13,-1,15,-1,17,-1,19,21,-1,-1,23,25,-1,-1,-1,-1,-1,-1,-1,-1],"loss_changes":[1.8493929E1,2.6598148E0,5.892508E0,1.6559124E0,5.083779E0,0E0,4.5827956E0,1.3196487E0,0E0,7.186129E-1,0E0,3.164516E0,0E0,1.8444803E0,8.451996E-1,0E0,0E0,2.7275028E0,4.021263E0,0E0,0E0,0E0,0E0,0E0,0E0,0E0,0E0],"parents":[2147483647,0,0,1,1,2,2,3,3,4,4,6,6,7,7,9,9,11,11,13,13,14,14,17,17,18,18],"right_children":[2,4,6,8,10,-1,12,14,-1,16,-1,18,-1,20,22,-1,-1,24,26,-1,-1,-1,-1,-1,-1,-1,-1],"split_conditions":[7E-2,1.55E2,4.3E-1,3.2274246E-1,2.9368575E-3,-1.16417944E-1,6.9E-1,3E0,4.707158E-2,3E0,-1.25417E-1,6E-1,-1.3058503E-1,3.1897926E-3,2.5125628E-3,3.5402343E-2,1.7458208E-1,7.822686E-3,8E-1,-9.456784E-2,7.0020065E-2,-1.3072589E-1,-8.831727E-3,-1.1652855E-2,1.9591798E-1,1.12263635E-1,-1.2944716E-1],"split_indices":[9,14,7,2,1,0,9,15,0,15,0,7,0,2,6,0,0,2,7,0,0,0,0,0,0,0,0],"split_type":[0,0,0,0,0,0,0,0,0,0,0,0,0,0,0,0,0,0,0,0,0,0,0,0,0,0,0],"sum_hessian":[2.835622E2,1.5407608E2,1.294861E2,1.3349956E2,2.0576525E1,1.4334312E1,1.15151794E2,1.2997595E2,3.5236037E0,9.664894E0,1.0911632E1,1.0776866E2,7.383135E0,2.0438835E1,1.0953712E2,5.030296E0,4.6345983E0,4.2807556E1,6.4961105E1,1.5523523E1,4.915312E0,1.0570449E2,3.8326316E0,3.942053E1,3.3870263E0,6.1159233E1,3.8018694E0],"tree_param":{"num_deleted":"0","num_feature":"17","num_nodes":"27","size_leaf_vector":"1"}},{"base_weights":[-3.0043218E-1,-3.867422E-1,4.4339654E-1,-4.3801656E-1,1.260455E-1,5.30419E-1,2.2760028E-2,-4.6860623E-1,2.1164007E-1,1.5647185E-1,2.444548E-2,-1.0741137E-1,-4.9985546E-1,1.0474303E-1,-3.2811627E-2,1.4334908E-2,-1.16533205E-1,-1.2750065E-1,-3.1152818E-2],"categories":[],"categories_nodes":[],"categories_segments":[],"categories_sizes":[],"default_left":[0,0,0,0,0,0,0,0,0,0,0,0,0,0,0,0,0,0,0],"id":23,"left_children":[1,3,5,7,-1,9,-1,11,13,-1,-1,15,17,-1,-1,-1,-1,-1,-1],"loss_changes":[1.597369E1,1.0320873E1,7.506776E-1,4.264271E0,0E0,7.938571E-1,0E0,2.209076E0,7.74173E-1,0E0,0E0,1.0455977E0,6.4146805E-1,0E0,0E0,0E0,0E0,0E0,0E0],"parents":[2147483647,0,0,1,1,2,2,3,3,5,5,7,7,8,8,11,11,12,12],"right_children":[2,4,6,8,-1,10,-1,12,14,-1,-1,16,18,-1,-1,-1,-1,-1,-1],"split_conditions":[1.4836795E-3,6.9E-1,1.4556041E-3,1.004016E-2,1.260455E-1,7.6923077E-3,2.2760028E-2,4E-1,2.6E0,1.5647185E-1,2.444548E-2,3.5252643E-3,1.010101E-3,1.0474303E-1,-3.2811627E-2,1.4334908E-2,-1.16533205E-1,-1.2750065E-1,-3.1152818E-2],"split_indices":[6,9,1,4,0,4,0,8,8,0,0,2,6,0,0,0,0,0,0],"split_type":[0,0,0,0,0,0,0,0,0,0,0,0,0,0,0,0,0,0,0],"sum_hessian":[2.4514075E2,2.2008347E2,2.5057285E1,2.085879E2,1.1495557E1,1.9689098E1,5.368186E0,1.9947417E2,9.113735E0,1.5761775E1,3.9273243E0,1.6236893E1,1.8323727E2,5.5408454E0,3.5728898E0,1.1702794E1,4.5340996E0,1.7803902E2,5.1982613E0],"tree_param":{"num_deleted":"0","num_feature":"17","num_nodes":"19","size_leaf_vector":"1"}},{"base_weights":[2.741025E-1,3.1522176E-1,-2.4711263E-1,4.506794E-1,8.5352376E-2,5.4223735E-2,-3.6847296E-1,1.5172695E-1,4.6707496E-1,2.0133062E-1,-3.3962205E-1,-1.0043136E-1,-1.3453865E-1,-9.244192E-2,1.3431336E-1,4.7610506E-1,-4.0298225E-3,4.0491536E-1,6.593636E-2,4.532471E-2,-4.5793694E-1,7.073669E-2,-1.1373927E-1,1.2148604E-1,6.5420144E-3,1.3360228E-1,2.7544672E-2,3.5137143E-2,-1.6047038E-1,-7.312427E-2,-1.690112E-1],"categories":[],"categories_nodes":[],"categories_segments":[],"categories_sizes":[],"default_left":[0,0,0,0,0,0,0,0,0,0,0,0,0,0,0,0,0,0,0,0,0,0,0,0,0,0,0,0,0,0,0],"id":24,"left_children":[1,3,5,7,9,-1,11,13,15,17,19,21,-1,-1,-1,23,-1,25,27,-1,29,-1,-1,-1,-1,-1,-1,-1,-1,-1,-1],"loss_changes":[7.676529E0,1.0207691E1,1.5714734E0,9.428406E-1,6.1428175E0,0E0,9.179964E-1,2.658855E0,8.610611E-1,2.659407E0,1.7345569E0,1.4220372E0,0E0,0E0,0E0,8.416023E-1,0E0,1.419795E0,3.24508E0,0E0,6.004839E-1,0E0,0E0,0E0,0E0,0E0,0E0,0E0,0E0,0E0,0E0],"parents":[2147483647,0,0,1,1,2,2,3,3,4,4,6,6,7,7,8,8,9,9,10,10,11,11,15,15,17,17,18,18,20,20],"right_children":[2,4,6,8,10,-1,12,14,16,18,20,22,-1,-1,-1,24,-1,26,28,-1,30,-1,-1,-1,-1,-1,-1,-1,-1,-1,-1],"split_conditions":[1.010101E-3,7E-2,8.7E1,1E0,1.6722408E-3,5.4223735E-2,1.29E2,3.164557E-3,1.0638298E-2,1.37E2,1.3E2,1.28E2,-1.3453865E-1,-9.244192E-2,1.3431336E-1,8.3402835E-4,-4.0298225E-3,3.8E-1,6.1E-1,4.532471E-2,8.403362E-3,7.073669E-2,-1.1373927E-1,1.2148604E-1,6.5420144E-3,1.3360228E-1,2.7544672E-2,3.5137143E-2,-1.6047038E-1,-7.312427E-2,-1.690112E-1],"split_indices":[6,9,11,12,2,0,0,3,3,0,0,11,0,0,0,6,0,9,9,0,2,0,0,0,0,0,0,0,0,0,0],"split_type":[0,0,0,0,0,0,0,0,0,0,0,0,0,0,0,0,0,0,0,0,0,0,0,0,0,0,0,0,0,0,0],"sum_hessian":[3.5354675E2,3.2806088E2,2.5485863E1,2.0581654E2,1.22244354E2,5.1203775E0,2.0365484E1,1.1233948E1,1.945826E2,9.644904E1,2.579531E1,8.513275E0,1.185221E1,4.7925353E0,6.4414124E0,1.910273E2,3.555298E0,3.772837E1,5.8720673E1,4.675711E0,2.1119598E1,4.187334E0,4.3259406E0,1.8684103E2,4.18627E0,2.5643337E1,1.2085034E1,5.3845596E1,4.8750772E0,1.3343775E1,7.775823E0],"tree_param":{"num_deleted":"0","num_feature":"17","num_nodes":"31","size_leaf_vector":"1"}},{"base_weights":[-1.5062118E-1,1.19484656E-1,-3.223703E-1,1.6910772E-1,-1.3526598E-1,-4.4893524E-1,-1.0037642E-1,-1.4768484E-1,2.9298863E-1,-4.7395113E-1,5.5369362E-2,-2.475636E-1,3.0942348E-1,9.285302E-2,-2.8471363E-1,3.7519112E-1,-1.2327833E-1,-1.2303082E-1,2.311048E-3,-1.3768032E-1,-1.3034487E-1,-4.916964E-2,1.5461166E-1,9.48335E-2,-4.0150043E-2,-1.028344E-1,5.8089342E-2,1.1206025E-1,-1.0487647E-1,-1.601905E-2,-1.319673E-1],"categories":[],"categories_nodes":[],"categories_segments":[],"categories_sizes":[],"default_left":[0,0,0,0,0,0,0,0,0,0,0,0,0,0,0,0,0,0,0,0,0,0,0,0,0,0,0,0,0,0,0],"id":25,"left_children":[1,3,5,7,-1,9,11,13,15,17,-1,19,21,23,25,27,-1,-1,-1,29,-1,-1,-1,-1,-1,-1,-1,-1,-1,-1,-1],"loss_changes":[1.1986265E1,3.3971057E0,4.386036E0,3.7540295E0,0E0,1.7847424E0,3.6083999E0,9.2447627E-1,4.5994015E0,8.5746765E-1,0E0,1.2413723E0,2.611731E0,8.338182E-1,1.2485925E0,3.81359E0,0E0,0E0,0E0,8.996012E-1,0E0,0E0,0E0,0E0,0E0,0E0,0E0,0E0,0E0,0E0,0E0],"parents":[2147483647,0,0,1,1,2,2,3,3,5,5,6,6,7,7,8,8,9,9,11,11,12,12,13,13,14,14,15,15,19,19],"right_children":[2,4,6,8,-1,10,12,14,16,18,-1,20,22,24,26,28,-1,-1,-1,30,-1,-1,-1,-1,-1,-1,-1,-1,-1,-1,-1],"split_conditions":[7E-1,8E-1,1.38E2,5.9E-1,-1.3526598E-1,3.529412E-1,8E0,2.6041667E-3,6.8E-1,2.5125628E-3,5.5369362E-2,9.157509E-4,8E-2,6E-2,7.352941E-3,7.473842E-3,-1.2327833E-1,-1.2303082E-1,2.311048E-3,1.8939395E-3,-1.3034487E-1,-4.916964E-2,1.5461166E-1,9.48335E-2,-4.0150043E-2,-1.028344E-1,5.8089342E-2,1.1206025E-1,-1.0487647E-1,-1.601905E-2,-1.319673E-1],"split_indices":[8,7,0,7,0,2,12,3,9,6,0,4,9,9,3,3,0,0,0,2,0,0,0,0,0,0,0,0,0,0,0],"split_type":[0,0,0,0,0,0,0,0,0,0,0,0,0,0,0,0,0,0,0,0,0,0,0,0,0,0,0,0,0,0,0],"sum_hessian":[2.5654758E2,9.9838394E1,1.567092E2,9.355478E1,6.283621E0,9.915555E1,5.755365E1,2.6245842E1,6.730894E1,9.5871376E1,3.2841702E0,4.263603E1,1.4917623E1,9.6423025E0,1.6603539E1,6.1410416E1,5.898518E0,9.236948E1,3.5018992E0,3.150008E1,1.1135946E1,5.793873E0,9.123751E0,4.292916E0,5.3493867E0,1.3500862E1,3.1026769E0,5.6637222E1,4.7731953E0,2.7481434E1,4.0186462E0],"tree_param":{"num_deleted":"0","num_feature":"17","num_nodes":"31","size_leaf_vector":"1"}},{"base_weights":[-2.6678446E-1,-3.7343866E-1,3.3981362E-1,-4.3503606E-1,4.4836447E-1,-9.521457E-2,4.6838292E-1,-4.5942754E-1,6.770899E-2,1.57284E-2,1.6478248E-1,1.4295311E-1,-4.829266E-2,-4.6187114E-2,-1.2484037E-1,8.6121105E-2,-8.728165E-2],"categories":[],"categories_nodes":[],"categories_segments":[],"categories_sizes":[],"default_left":[0,0,0,0,0,0,0,0,0,0,0,0,0,0,0,0,0],"id":26,"left_children":[1,3,5,7,9,-1,11,13,-1,-1,-1,-1,-1,15,-1,-1,-1],"loss_changes":[1.3690993E1,9.24527E0,3.13191E0,2.996828E0,1.0115936E0,0E0,1.9930692E0,2.6474686E0,0E0,0E0,0E0,0E0,0E0,1.9385982E0,0E0,0E0,0E0],"parents":[2147483647,0,0,1,1,2,2,3,3,4,4,6,6,7,7,13,13],"right_children":[2,4,6,8,10,-1,12,14,-1,-1,-1,-1,-1,16,-1,-1,-1],"split_conditions":[9.3457947E-4,7.9E-1,2.9E-1,1.1778563E-2,8.1E-1,-9.521457E-2,1.35E2,4E-1,6.770899E-2,1.57284E-2,1.6478248E-1,1.4295311E-1,-4.829266E-2,4.7E0,-1.2484037E-1,8.6121105E-2,-8.728165E-2],"split_indices":[6,7,7,4,7,0,0,8,0,0,0,0,0,10,0,0,0],"split_type":[0,0,0,0,0,0,0,0,0,0,0,0,0,0,0,0,0],"sum_hessian":[2.0865822E2,1.77784E2,3.0874228E1,1.6582536E2,1.1958639E1,4.3768287E0,2.64974E1,1.6062434E2,5.2010164E0,4.6874456E0,7.2711935E0,2.3030436E1,3.466964E0,1.4360671E1,1.4626367E2,6.2123303E0,8.14834E0],"tree_param":{"num_deleted":"0","num_feature":"17","num_nodes":"17","size_leaf_vector":"1"}},{"base_weights":[2.4233294E-1,6.673379E-2,5.023067E-1,2.2598255E-1,-1.2477259E-1,5.221775E-1,1.5611845E-2,2.6168668E-1,-1.361063E-1,-3.5140103E-1,1.7598495E-1,2.2484915E-2,1.346375E-1,3.8223907E-1,-3.267577E-2,-2.7643394E-1,-1.4376253E-1,2.820658E-1,-7.2610006E-2,1.15306266E-1,-6.3175852E-3,-1.1218247E-1,5.4046907E-2,-1.15739815E-1,-4.1819927E-3,2.7390577E-2,1.250413E-1],"categories":[],"categories_nodes":[],"categories_segments":[],"categories_sizes":[],"default_left":[0,0,0,0,0,0,0,0,0,0,0,0,0,0,0,0,0,0,0,0,0,0,0,0,0,0,0],"id":27,"left_children":[1,3,5,7,9,11,-1,13,-1,15,17,-1,-1,19,21,23,-1,25,-1,-1,-1,-1,-1,-1,-1,-1,-1],"loss_changes":[1.4359209E1,5.80214E0,1.0769501E0,2.99583E0,5.9646564E0,8.1297684E-1,0E0,3.5542412E0,0E0,6.7487574E-1,1.9563525E0,0E0,0E0,2.2946901E0,3.1955554E0,1.8900166E0,0E0,1.1256034E0,0E0,0E0,0E0,0E0,0E0,0E0,0E0,0E0,0E0],"parents":[2147483647,0,0,1,1,2,2,3,3,4,4,5,5,7,7,9,9,10,10,13,13,14,14,15,15,17,17],"right_children":[2,4,6,8,10,12,-1,14,-1,16,18,-1,-1,20,22,24,-1,26,-1,-1,-1,-1,-1,-1,-1,-1,-1],"split_conditions":[1.7182131E-3,5.9E-1,7.9E1,1.03E2,4.819277E-3,2.8E1,1.5611845E-2,1.51E2,-1.361063E-1,1.5E2,1.01E2,2.2484915E-2,1.346375E-1,3.5E1,1.46E2,1.39E2,-1.4376253E-1,7.473842E-3,-7.2610006E-2,1.15306266E-1,-6.3175852E-3,-1.1218247E-1,5.4046907E-2,-1.15739815E-1,-4.1819927E-3,2.7390577E-2,1.250413E-1],"split_indices":[1,7,15,15,3,11,0,14,0,14,11,0,0,15,0,0,0,3,0,0,0,0,0,0,0,0,0],"split_type":[0,0,0,0,0,0,0,0,0,0,0,0,0,0,0,0,0,0,0,0,0,0,0,0,0,0,0],"sum_hessian":[3.1427618E2,1.883273E2,1.25948875E2,1.0272524E2,8.5602066E1,1.2032587E2,5.6230106E0,9.880677E1,3.91847E0,4.8721096E1,3.688097E1,4.642614E0,1.1568326E2,6.988694E1,2.8919832E1,3.8166653E1,1.0554443E1,3.0369617E1,6.5113506E0,5.8424274E1,1.1462662E1,1.0523294E1,1.8396538E1,2.1755007E1,1.6411646E1,1.7798508E1,1.2571111E1],"tree_param":{"num_deleted":"0","num_feature":"17","num_nodes":"27","size_leaf_vector":"1"}},{"base_weights":[-1.5520689E-1,-3.7353098E-1,5.4028172E-2,-4.3362328E-1,-9.2585064E-2,1.5630654E-1,-1.14119E-1,-1.7242579E-1,-1.2289341E-1,1.5384556E-1,-1.17324606E-1,3.3970988E-1,-3.284517E-2,5.4045454E-2,-1.2253241E-1,-4.4771865E-2,3.8950425E-1,2.1478295E-1,1.821911E-1,5.8224343E-2,-7.158394E-2,-6.449714E-2,1.3220736E-1,-7.367756E-3,1.8573661E-1,6.8970464E-2,-3.5717875E-2,6.6625856E-2,-1.2318367E-2],"categories":[],"categories_nodes":[],"categories_segments":[],"categories_sizes":[],"default_left":[0,0,0,0,0,0,0,0,0,0,0,0,0,0,0,0,0,0,0,0,0,0,0,0,0,0,0,0,0],"id":28,"left_children":[1,3,5,7,9,11,-1,13,-1,15,-1,17,19,21,-1,-1,23,25,-1,27,-1,-1,-1,-1,-1,-1,-1,-1,-1],"loss_changes":[1.017231E1,1.7981052E0,6.0427985E0,1.2699928E0,1.971567E0,3.3420198E0,0E0,1.3066578E0,0E0,1.0992651E0,0E0,2.2175198E0,1.1290157E0,1.8089905E0,0E0,0E0,1.2065263E0,8.786582E-1,0E0,8.2549703E-1,0E0,0E0,0E0,0E0,0E0,0E0,0E0,0E0,0E0],"parents":[2147483647,0,0,1,1,2,2,3,3,4,4,5,5,7,7,9,9,11,11,12,12,13,13,16,16,17,17,19,19],"right_children":[2,4,6,8,10,12,-1,14,-1,16,-1,18,20,22,-1,-1,24,26,-1,28,-1,-1,-1,-1,-1,-1,-1,-1,-1],"split_conditions":[1.37E2,7.984032E-3,2.8694405E-3,8.764242E-4,4.198153E-3,1E0,-1.14119E-1,6.5019506E-4,-1.2289341E-1,8.2E0,-1.17324606E-1,3E0,4.878049E-3,7E0,-1.2253241E-1,-4.4771865E-2,1.31E2,1.49E2,1.821911E-1,7.1E0,-7.158394E-2,-6.449714E-2,1.3220736E-1,-7.367756E-3,1.8573661E-1,6.8970464E-2,-3.5717875E-2,6.6625856E-2,-1.2318367E-2],"split_indices":[0,2,1,3,1,16,0,1,0,10,0,15,3,10,0,0,0,0,0,10,0,0,0,0,0,0,0,0,0],"split_type":[0,0,0,0,0,0,0,0,0,0,0,0,0,0,0,0,0,0,0,0,0,0,0,0,0,0,0,0,0],"sum_hessian":[2.2123935E2,1.0788386E2,1.1335549E2,8.842661E1,1.9457247E1,9.501501E1,1.8340483E1,1.6789478E1,7.163713E1,1.21209E1,7.3363457E0,4.78364E1,4.7178608E1,1.02873335E1,6.502145E0,5.1229315E0,6.997969E0,3.738587E1,1.0450527E1,3.5276783E1,1.1901827E1,6.4832244E0,3.8041086E0,3.6219563E0,3.3760126E0,3.2124317E1,5.261554E0,1.15048275E1,2.3771954E1],"tree_param":{"num_deleted":"0","num_feature":"17","num_nodes":"29","size_leaf_vector":"1"}},{"base_weights":[-2.6223317E-1,-3.4772536E-1,3.6513796E-1,7.951652E-3,-4.388836E-1,1.0815569E-1,-1.0332746E-2,2.6354584E-1,-1.5449989E-1,-1.2171927E-1,1.09446526E-1,1.335051E-1,7.621413E-3,-3.4927338E-1,3.1784724E-2,3.7351906E-1,-1.0542639E-1,-1.1811263E-1,-3.575368E-3,1.3285139E-2,1.5991364E-1],"categories":[],"categories_nodes":[],"categories_segments":[],"categories_sizes":[],"default_left":[0,0,0,0,0,0,0,0,0,0,0,0,0,0,0,0,0,0,0,0,0],"id":29,"left_children":[1,3,5,7,9,-1,-1,11,13,-1,15,-1,-1,17,-1,19,-1,-1,-1,-1,-1],"loss_changes":[9.869104E0,5.203001E0,6.291907E-1,1.4399207E0,3.4164524E0,0E0,0E0,8.326399E-1,1.2092465E0,0E0,1.7147237E0,0E0,0E0,5.223948E-1,0E0,6.435977E-1,0E0,0E0,0E0,0E0,0E0],"parents":[2147483647,0,0,1,1,2,2,3,3,4,4,7,7,8,8,10,10,13,13,15,15],"right_children":[2,4,6,8,10,-1,-1,12,14,-1,16,-1,-1,18,-1,20,-1,-1,-1,-1,-1],"split_conditions":[1.4836795E-3,5E-1,1.29E2,1.8E1,9.009009E-3,1.0815569E-1,-1.0332746E-2,1.39E2,3E1,-1.2171927E-1,1.19E2,1.335051E-1,7.621413E-3,1E0,3.1784724E-2,6.8E1,-1.0542639E-1,-1.1811263E-1,-3.575368E-3,1.3285139E-2,1.5991364E-1],"split_indices":[6,8,14,11,4,0,0,14,11,0,14,0,0,16,0,15,0,0,0,0,0],"split_type":[0,0,0,0,0,0,0,0,0,0,0,0,0,0,0,0,0,0,0,0,0],"sum_hessian":[1.8063654E2,1.5936546E2,2.1271072E1,3.269814E1,1.2666732E2,1.8185442E1,3.0856314E0,1.2464591E1,2.023355E1,1.1656624E2,1.0101088E1,5.1708093E0,7.2937818E0,1.18196745E1,8.413876E0,6.9452367E0,3.155851E0,8.3408E0,3.4788744E0,3.6963289E0,3.2489078E0],"tree_param":{"num_deleted":"0","num_feature":"17","num_nodes":"21","size_leaf_vector":"1"}},{"base_weights":[2.1994074E-1,7.2923884E-2,4.795105E-1,1.4361762E-1,-1.6075867E-1,1.2575912E-1,-4.8233785E-2,2.2582786E-1,-2.7953666E-1,-3.7519524E-1,5.4210916E-2,-8.731055E-2,3.1613287E-1,-4.4311816E-1,-1.943072E-2,6.4043486E-3,-4.79247E-1,-2.252208E-1,7.391237E-2,-9.734698E-2,7.1030394E-3,-7.9637185E-2,8.7536305E-2,-1.4636241E-1,3.885143E-3,6.343791E-2,-1.114891E-1,-1.426266E-1,-2.201924E-2,-1.03975646E-1,3.9329085E-2],"categories":[],"categories_nodes":[],"categories_segments":[],"categories_sizes":[],"default_left":[0,0,0,0,0,0,0,0,0,0,0,0,0,0,0,0,0,0,0,0,0,0,0,0,0,0,0,0,0,0,0],"id":30,"left_children":[1,3,5,7,9,-1,-1,11,13,15,17,19,21,23,25,-1,27,29,-1,-1,-1,-1,-1,-1,-1,-1,-1,-1,-1,-1,-1],"loss_changes":[1.050695E1,2.9560149E0,1.6779003E0,4.8232017E0,1.9429065E0,0E0,0E0,3.2831407E0,9.575006E-1,8.883226E-1,1.5308582E0,9.3942666E-1,2.0472841E0,9.1647744E-1,1.2567531E0,0E0,5.472245E-1,8.408396E-1,0E0,0E0,0E0,0E0,0E0,0E0,0E0,0E0,0E0,0E0,0E0,0E0,0E0],"parents":[2147483647,0,0,1,1,2,2,3,3,4,4,7,7,8,8,9,9,10,10,11,11,12,12,13,13,14,14,16,16,17,17],"right_children":[2,4,6,8,10,-1,-1,12,14,16,18,20,22,24,26,-1,28,30,-1,-1,-1,-1,-1,-1,-1,-1,-1,-1,-1,-1,-1],"split_conditions":[2.0618557E-3,1.51E2,1.5649452E-3,4.5E1,1E0,1.2575912E-1,-4.8233785E-2,8.3402835E-4,1.26E2,1.7E1,3.1347962E-3,2.1E1,1E-1,1.968504E-3,1.26E2,6.4043486E-3,6.5019506E-4,9.2E1,7.391237E-2,-9.734698E-2,7.1030394E-3,-7.9637185E-2,8.7536305E-2,-1.4636241E-1,3.885143E-3,6.343791E-2,-1.114891E-1,-1.426266E-1,-2.201924E-2,-1.03975646E-1,3.9329085E-2],"split_indices":[1,14,6,15,16,0,0,3,14,11,3,11,10,2,11,0,1,11,0,0,0,0,0,0,0,0,0,0,0,0,0],"split_type":[0,0,0,0,0,0,0,0,0,0,0,0,0,0,0,0,0,0,0,0,0,0,0,0,0,0,0,0,0,0,0],"sum_hessian":[2.752476E2,1.7653912E2,9.8708466E1,1.3583244E2,4.0706673E1,9.560831E1,3.1001575E0,1.1412635E2,2.1706097E1,2.0005466E1,2.0701204E1,2.5552965E1,8.857339E1,1.2893639E1,8.812459E0,4.278426E0,1.5727041E1,9.627438E0,1.1073767E1,6.422115E0,1.9130852E1,4.0839353E0,8.448945E1,9.628059E0,3.2655795E0,5.6188197E0,3.193639E0,1.2378606E1,3.3484352E0,6.3662343E0,3.2612035E0],"tree_param":{"num_deleted":"0","num_feature":"17","num_nodes":"31","size_leaf_vector":"1"}},{"base_weights":[-1.17006145E-1,5.0068465E-3,-4.3474305E-1,-2.0866804E-1,1.4427769E-1,1.8479774E-2,-1.1780604E-1,-8.65015E-2,1.3367246E-1,1.7741361E-1,-9.934145E-2,7.795694E-2,-4.9059894E-2,-2.5444648E-1,2.2907723E-1,-1.22166775E-1,4.5333385E-2,8.7700136E-2,2.5441755E-2],"categories":[],"categories_nodes":[],"categories_segments":[],"categories_sizes":[],"default_left":[0,0,0,0,0,0,0,0,0,0,0,0,0,0,0,0,0,0,0],"id":31,"left_children":[1,3,5,7,9,-1,-1,-1,11,13,-1,-1,-1,15,17,-1,-1,-1,-1],"loss_changes":[7.9955654E0,4.492884E0,1.098033E0,2.8484151E0,1.7107203E0,0E0,0E0,0E0,1.106731E0,1.9950259E0,0E0,0E0,0E0,1.0839157E0,1.174151E0,0E0,0E0,0E0,0E0],"parents":[2147483647,0,0,1,1,2,2,3,3,4,4,8,8,9,9,13,13,14,14],"right_children":[2,4,6,8,10,-1,-1,-1,12,14,-1,-1,-1,16,18,-1,-1,-1,-1],"split_conditions":[2.020202E-3,1.37E2,2E0,2.5773195E-3,7.9E-1,1.8479774E-2,-1.1780604E-1,-8.65015E-2,2E0,4.3E-1,-9.934145E-2,7.795694E-2,-4.9059894E-2,1.6E0,1E0,-1.22166775E-1,4.5333385E-2,8.7700136E-2,2.5441755E-2],"split_indices":[1,0,15,2,7,0,0,0,8,7,0,0,0,8,16,0,0,0,0],"split_type":[0,0,0,0,0,0,0,0,0,0,0,0,0,0,0,0,0,0,0],"sum_hessian":[2.0518509E2,1.4896559E2,5.6219494E1,5.858455E1,9.038104E1,3.6981387E0,5.2521355E1,4.1800304E1,1.6784243E1,8.5804665E1,4.576375E0,1.0933923E1,5.8503203E0,8.748686E0,7.7055984E1,5.6109877E0,3.1376977E0,3.848768E1,3.8568302E1],"tree_param":{"num_deleted":"0","num_feature":"17","num_nodes":"19","size_leaf_vector":"1"}},{"base_weights":[-2.443669E-1,-3.4241006E-1,2.571179E-1,-4.0049255E-1,3.8360637E-1,1.1700662E-1,-5.794454E-3,-4.3304187E-1,2.7275888E-2,1.4208594E-1,-1.0472883E-2,7.595475E-2,-8.103042E-2,-2.2912022E-1,-1.2755269E-1,4.457446E-2,-7.6796606E-2],"categories":[],"categories_nodes":[],"categories_segments":[],"categories_sizes":[],"default_left":[0,0,0,0,0,0,0,0,0,0,0,0,0,0,0,0,0],"id":32,"left_children":[1,3,5,7,9,-1,11,13,-1,-1,-1,-1,-1,15,-1,-1,-1],"loss_changes":[7.9135456E0,5.78578E0,1.4779907E0,2.1066952E0,8.4191835E-1,0E0,1.363178E0,1.7239723E0,0E0,0E0,0E0,0E0,0E0,1.1342536E0,0E0,0E0,0E0],"parents":[2147483647,0,0,1,1,2,2,3,3,4,4,6,6,7,7,13,13],"right_children":[2,4,6,8,10,-1,12,14,-1,-1,-1,-1,-1,16,-1,-1,-1],"split_conditions":[9.6153846E-4,6.9E-1,1.3E0,9.47226E-3,1.6680567E-3,1.1700662E-1,3.3519552E-3,6E-1,2.7275888E-2,1.4208594E-1,-1.0472883E-2,7.595475E-2,-8.103042E-2,1E0,-1.2755269E-1,4.457446E-2,-7.6796606E-2],"split_indices":[6,9,10,4,3,0,4,8,0,0,0,0,0,12,0,0,0],"split_type":[0,0,0,0,0,0,0,0,0,0,0,0,0,0,0,0,0],"sum_hessian":[1.5816124E2,1.3256184E2,2.5599394E1,1.23157425E2,9.404423E0,1.3770153E1,1.1829241E1,1.1590468E2,7.25275E0,6.3226676E0,3.0817552E0,6.0198126E0,5.8094277E0,3.2924763E1,8.297991E1,5.0894804E0,2.7835283E1],"tree_param":{"num_deleted":"0","num_feature":"17","num_nodes":"17","size_leaf_vector":"1"}},{"base_weights":[1.823217E-1,3.8736217E-2,4.5223495E-1,8.662638E-2,-3.399469E-1,4.9117193E-1,6.5557756E-2,-1.1580119E-1,2.2445485E-1,-1.3314785E-1,9.807794E-3,-1.0066323E-2,1.2882097E-1,8.781829E-2,-3.907423E-2,-2.1762073E-2,-1.0619979E-1,3.287579E-1,-1.6498606E-1,1.8498959E-2,-6.9679566E-2,9.915274E-2,3.2510664E-2,-1.5155785E-1,-1.0760392E-2],"categories":[],"categories_nodes":[],"categories_segments":[],"categories_sizes":[],"default_left":[0,0,0,0,0,0,0,0,0,0,0,0,0,0,0,0,0,0,0,0,0,0,0,0,0],"id":33,"left_children":[1,3,5,7,9,11,13,15,17,-1,-1,-1,-1,-1,-1,19,-1,21,23,-1,-1,-1,-1,-1,-1],"loss_changes":[9.722507E0,3.0243552E0,1.2803192E0,4.138496E0,1.3904238E0,1.0358391E0,6.3370365E-1,1.7451482E0,3.6301174E0,0E0,0E0,0E0,0E0,0E0,0E0,1.1856158E0,0E0,8.896432E-1,1.0104839E0,0E0,0E0,0E0,0E0,0E0,0E0],"parents":[2147483647,0,0,1,1,2,2,3,3,4,4,5,5,6,6,7,7,8,8,15,15,17,17,18,18],"right_children":[2,4,6,8,10,12,14,16,18,-1,-1,-1,-1,-1,-1,20,-1,22,24,-1,-1,-1,-1,-1,-1],"split_conditions":[1.7182131E-3,9.6153846E-4,7.936508E-4,2.9702971E-3,7.6726344E-3,2.9E1,4.5E1,3.9E-1,1.55E2,-1.3314785E-1,9.807794E-3,-1.0066323E-2,1.2882097E-1,8.781829E-2,-3.907423E-2,1.51E2,-1.0619979E-1,2.6E-1,1.56E2,1.8498959E-2,-6.9679566E-2,9.915274E-2,3.2510664E-2,-1.5155785E-1,-1.0760392E-2],"split_indices":[1,6,6,3,3,11,15,9,14,0,0,0,0,0,0,14,0,9,14,0,0,0,0,0,0],"split_type":[0,0,0,0,0,0,0,0,0,0,0,0,0,0,0,0,0,0,0,0,0,0,0,0,0],"sum_hessian":[2.5031898E2,1.6414334E2,8.617565E1,1.4640009E2,1.7743246E1,7.8046425E1,8.129227E0,5.936743E1,8.703266E1,1.1496215E1,6.2470317E0,3.3653278E0,7.468109E1,3.2981224E0,4.8311043E0,4.633761E1,1.302982E1,6.876997E1,1.8262684E1,3.4276485E1,1.2061123E1,5.0514027E1,1.8255945E1,3.0938535E0,1.5168831E1],"tree_param":{"num_deleted":"0","num_feature":"17","num_nodes":"25","size_leaf_vector":"1"}},{"base_weights":[-7.9646006E-2,-2.825871E-1,1.0024425E-1,-3.655627E-1,1.3388033E-1,1.7999632E-2,5.566203E-1,-4.468485E-1,-1.7521685E-1,4.4108325E-1,-1.0791335E-1,-2.658976E-1,1.1977411E-1,3.258989E-1,2.2209035E-1,-1.194317E-1,-8.743649E-3,-3.9205602E-1,1.4141929E-1,1.7468277E-1,-2.2958523E-2,-1.02029055E-1,1.7650146E-2,-7.1750425E-2,2.502841E-1,-5.311808E-3,1.4032023E-1,-1.2784274E-1,-3.351659E-3,2.0458338E-1,-7.970945E-2,1.2682773E-2,-1.2705843E-1,8.0820516E-2,-9.3392976E-2],"categories":[],"categories_nodes":[],"categories_segments":[],"categories_sizes":[],"default_left":[0,0,0,0,0,0,0,0,0,0,0,0,0,0,0,0,0,0,0,0,0,0,0,0,0,0,0,0,0,0,0,0,0,0,0],"id":34,"left_children":[1,3,5,7,9,11,13,15,17,19,-1,21,23,25,-1,-1,-1,27,29,-1,-1,-1,-1,31,33,-1,-1,-1,-1,-1,-1,-1,-1,-1,-1],"loss_changes":[6.893737E0,3.1116476E0,3.759496E0,1.0693283E0,2.8759112E0,2.5203474E0,8.819394E-1,6.3712597E-1,1.6923534E0,1.5077605E0,0E0,1.131695E0,1.6198988E0,8.787072E-1,0E0,0E0,0E0,6.4469814E-1,3.5096986E0,0E0,0E0,0E0,0E0,1.4561033E0,1.8676057E0,0E0,0E0,0E0,0E0,0E0,0E0,0E0,0E0,0E0,0E0],"parents":[2147483647,0,0,1,1,2,2,3,3,4,4,5,5,6,6,7,7,8,8,9,9,11,11,12,12,13,13,17,17,18,18,23,23,24,24],"right_children":[2,4,6,8,10,12,14,16,18,20,-1,22,24,26,-1,-1,-1,28,30,-1,-1,-1,-1,32,34,-1,-1,-1,-1,-1,-1,-1,-1,-1,-1],"split_conditions":[7E-2,1.55E2,6E0,3.1982942E-3,2.9368575E-3,1.41E2,2.7E-1,1.42E2,9.7E0,4.878049E-3,-1.0791335E-1,2.9411765E-3,5.9E-1,1.49E2,2.2209035E-1,-1.194317E-1,-8.743649E-3,9E0,1.16E1,1.7468277E-1,-2.2958523E-2,-1.02029055E-1,1.7650146E-2,7.1E1,6.3E-1,-5.311808E-3,1.4032023E-1,-1.2784274E-1,-3.351659E-3,2.0458338E-1,-7.970945E-2,1.2682773E-2,-1.2705843E-1,8.0820516E-2,-9.3392976E-2],"split_indices":[9,14,12,2,1,14,9,11,10,3,0,2,7,14,0,0,0,12,10,0,0,0,0,11,9,0,0,0,0,0,0,0,0,0,0],"split_type":[0,0,0,0,0,0,0,0,0,0,0,0,0,0,0,0,0,0,0,0,0,0,0,0,0,0,0,0,0,0,0,0,0,0,0],"sum_hessian":[1.8705669E2,8.762861E1,9.9428085E1,7.317224E1,1.44563675E1,8.512665E1,1.4301436E1,5.0331135E1,2.28411E1,9.510626E0,4.945741E0,2.2038425E1,6.3088223E1,9.605126E0,4.6963096E0,4.666701E1,3.6641266E0,1.3415613E1,9.425488E0,6.2007504E0,3.3098755E0,1.5340291E1,6.698135E0,2.5750044E1,3.7338177E1,4.249335E0,5.355792E0,9.933489E0,3.4821243E0,3.4998446E0,5.9256434E0,2.0798105E1,4.951938E0,3.3856815E1,3.481365E0],"tree_param":{"num_deleted":"0","num_feature":"17","num_nodes":"35","size_leaf_vector":"1"}},{"base_weights":[-1.9816789E-1,-2.9800308E-1,2.5429615E-1,-3.5483077E-1,1.0495812E-1,1.0671275E-1,7.218673E-2,-3.9923796E-1,3.143425E-2,6.413474E-2,-8.430086E-2,-1.5450889E-1,-1.283822E-1,-5.931725E-2,8.722923E-2,4.7957925E-3,-9.858191E-2],"categories":[],"categories_nodes":[],"categories_segments":[],"categories_sizes":[],"default_left":[0,0,0,0,0,0,0,0,0,0,0,0,0,0,0,0,0],"id":35,"left_children":[1,3,5,7,-1,-1,9,11,13,-1,-1,15,-1,-1,-1,-1,-1],"loss_changes":[6.5750055E0,4.9763184E0,8.036114E-1,1.9026728E0,0E0,0E0,1.1525191E0,2.6882534E0,1.1313791E0,0E0,0E0,1.3792875E0,0E0,0E0,0E0,0E0,0E0],"parents":[2147483647,0,0,1,1,2,2,3,3,6,6,7,7,8,8,11,11],"right_children":[2,4,6,8,-1,-1,10,12,14,-1,-1,16,-1,-1,-1,-1,-1],"split_conditions":[9.6153846E-4,6.9E-1,1.3E0,5.6E1,1.0495812E-1,1.0671275E-1,7.035176E-3,6E-1,1E0,6.413474E-2,-8.430086E-2,1.7667845E-3,-1.283822E-1,-5.931725E-2,8.722923E-2,4.7957925E-3,-9.858191E-2],"split_indices":[6,9,10,15,0,0,3,8,13,0,0,3,0,0,0,0,0],"split_type":[0,0,0,0,0,0,0,0,0,0,0,0,0,0,0,0,0],"sum_hessian":[1.428778E2,1.17330475E2,2.5547333E1,1.09192444E2,8.138027E0,1.2426094E1,1.3121238E1,9.790335E1,1.1289099E1,9.304463E0,3.8167748E0,3.1925028E1,6.5978325E1,6.2511663E0,5.0379324E0,1.9049969E1,1.2875059E1],"tree_param":{"num_deleted":"0","num_feature":"17","num_nodes":"17","size_leaf_vector":"1"}},{"base_weights":[1.3651389E-1,2.1237193E-1,-1.23508565E-1,2.428658E-1,-1.3937502E-1,-5.800831E-2,-1.21912986E-1,3.3156738E-1,5.565999E-4,-1.4315405E-1,-6.2490944E-3,-1.15010425E-1,3.5771525E-1,-2.1098198E-1,2.0727251E-1,5.4011527E-2,-9.837138E-2,9.4994344E-2,-6.284813E-2,-1.0991162E-2,-1.2698393E-1,1.310282E-1,1.9965954E-2,-4.3867372E-2,4.7043636E-2],"categories":[],"categories_nodes":[],"categories_segments":[],"categories_sizes":[],"default_left":[0,0,0,0,0,0,0,0,0,0,0,0,0,0,0,0,0,0,0,0,0,0,0,0,0],"id":36,"left_children":[1,3,5,7,-1,9,-1,11,13,-1,15,-1,17,19,21,23,-1,-1,-1,-1,-1,-1,-1,-1,-1],"loss_changes":[4.3942146E0,4.1689663E0,1.1798447E0,3.5666637E0,0E0,1.1701331E0,0E0,2.6792316E0,2.0321586E0,0E0,9.791485E-1,0E0,1.7005978E0,1.1170367E0,9.069946E-1,1.1538821E0,0E0,0E0,0E0,0E0,0E0,0E0,0E0,0E0,0E0],"parents":[2147483647,0,0,1,1,2,2,3,3,5,5,7,7,8,8,10,10,12,12,13,13,14,14,15,15],"right_children":[2,4,6,8,-1,10,-1,12,14,-1,16,-1,18,20,22,24,-1,-1,-1,-1,-1,-1,-1,-1,-1],"split_conditions":[1.44E2,2.1881838E-3,5.1E-1,1.4E-1,-1.3937502E-1,0E0,-1.21912986E-1,1.06E2,3.968254E-3,-1.4315405E-1,7.8125E-3,-1.15010425E-1,1.1778563E-2,3E0,1.31E2,2.3584906E-3,-9.837138E-2,9.4994344E-2,-6.284813E-2,-1.0991162E-2,-1.2698393E-1,1.310282E-1,1.9965954E-2,-4.3867372E-2,4.7043636E-2],"split_indices":[0,6,9,9,0,16,0,14,3,0,3,0,4,15,0,3,0,0,0,0,0,0,0,0,0],"split_type":[0,0,0,0,0,0,0,0,0,0,0,0,0,0,0,0,0,0,0,0,0,0,0,0,0],"sum_hessian":[2.2044647E2,1.7080089E2,4.964559E1,1.6495233E2,5.848562E0,4.3060425E1,6.5851665E0,1.2048009E2,4.447224E1,3.0151565E0,4.004527E1,3.321528E0,1.17158554E2,2.1969528E1,2.2502712E1,3.5397854E1,4.6474147E0,1.1338371E2,3.7748475E0,1.4796913E1,7.1726146E0,5.559601E0,1.6943111E1,1.2946655E1,2.2451199E1],"tree_param":{"num_deleted":"0","num_feature":"17","num_nodes":"25","size_leaf_vector":"1"}},{"base_weights":[-3.488763E-2,5.9837498E-2,-1.1059847E-1,-2.4968807E-1,1.1488826E-1,-9.850927E-2,4.2358972E-2,1.3874537E-1,-1.2039318E-1,1.9204569E-1,-1.1928019E-1,3.873435E-2,1.4497182E-1,-8.512183E-2,7.868422E-2],"categories":[],"categories_nodes":[],"categories_segments":[],"categories_sizes":[],"default_left":[0,0,0,0,0,0,0,0,0,0,0,0,0,0,0],"id":37,"left_children":[1,3,-1,5,7,-1,-1,9,-1,11,13,-1,-1,-1,-1],"loss_changes":[6.683902E0,2.427984E0,0E0,1.3725936E0,1.7778163E0,0E0,0E0,1.6235023E0,0E0,1.303505E0,2.0798347E0,0E0,0E0,0E0,0E0],"parents":[2147483647,0,0,1,1,3,3,4,4,7,7,9,9,10,10],"right_children":[2,4,-1,6,8,-1,-1,10,-1,12,14,-1,-1,-1,-1],"split_conditions":[2.8694405E-3,1.28E2,-1.1059847E-1,6.6E-1,8E-1,-9.850927E-2,4.2358972E-2,6.666667E-3,-1.2039318E-1,1.29E2,1.44E2,3.873435E-2,1.4497182E-1,-8.512183E-2,7.868422E-2],"split_indices":[1,0,0,7,7,0,0,3,0,11,0,0,0,0,0],"split_type":[0,0,0,0,0,0,0,0,0,0,0,0,0,0,0],"sum_hessian":[1.7144853E2,1.39807E2,3.1641514E1,2.0576883E1,1.19230125E2,1.53491125E1,5.2277713E0,1.1538285E2,3.8472767E0,9.5840744E1,1.9542105E1,8.875324E1,7.0875034E0,1.3086956E1,6.455149E0],"tree_param":{"num_deleted":"0","num_feature":"17","num_nodes":"15","size_leaf_vector":"1"}},{"base_weights":[-1.8451364E-1,1.938631E-1,-3.3280623E-1,-7.087892E-2,3.4673718E-1,-4.0953532E-1,1.2658148E-1,1.21563695E-1,1.2502517E-1,-1.9674745E-1,-1.2687583E-1,-1.9916318E-2,1.210968E-1,-3.626751E-2,-9.940106E-2,-1.0198105E-1,2.4589777E-2],"categories":[],"categories_nodes":[],"categories_segments":[],"categories_sizes":[],"default_left":[0,0,0,0,0,0,0,0,0,0,0,0,0,0,0,0,0],"id":38,"left_children":[1,3,5,-1,7,9,-1,11,-1,13,-1,-1,-1,15,-1,-1,-1],"loss_changes":[6.8718452E0,2.6375194E0,5.843319E0,0E0,8.6509657E-1,1.5843401E0,0E0,9.281906E-1,0E0,8.592392E-1,0E0,0E0,0E0,8.490994E-1,0E0,0E0,0E0],"parents":[2147483647,0,0,1,1,2,2,4,4,5,5,7,7,9,9,13,13],"right_children":[2,4,6,-1,8,10,-1,12,-1,14,-1,-1,-1,16,-1,-1,-1],"split_conditions":[1.26E2,6.8E1,6.9E-1,-7.087892E-2,9.3457947E-4,1.7667845E-3,1.2658148E-1,1E0,1.2502517E-1,3E0,-1.2687583E-1,-1.9916318E-2,1.210968E-1,1.4E-1,-9.940106E-2,-1.0198105E-1,2.4589777E-2],"split_indices":[14,11,9,0,6,3,0,16,0,12,0,0,0,9,0,0,0],"split_type":[0,0,0,0,0,0,0,0,0,0,0,0,0,0,0,0,0],"sum_hessian":[1.20320114E2,3.3791622E1,8.6528496E1,7.9888015E0,2.580282E1,7.9748795E1,6.7796955E0,1.1182327E1,1.4620492E1,2.6098738E1,5.365006E1,7.6952386E0,3.4870887E0,1.5165108E1,1.093363E1,3.4926505E0,1.1672458E1],"tree_param":{"num_deleted":"0","num_feature":"17","num_nodes":"17","size_leaf_vector":"1"}},{"base_weights":[1.3019635E-1,2.4989086E-1,-9.479975E-2,3.0828854E-1,-1.0072451E-1,-1.1033186E-1,5.5862255E-3,3.4264407E-1,-9.628416E-2,-3.1338498E-1,1.0879951E-1,5.5065848E-2,-1.2087258E-1,4.0257114E-1,4.4370484E-2,1.8391883E-2,-1.18370734E-1,1.482921E-1,-3.1572133E-1,1.3210829E-1,7.090402E-2,8.2978174E-2,-9.767041E-2,5.8796797E-3,7.744856E-2,-1.2207546E-1,8.712989E-3],"categories":[],"categories_nodes":[],"categories_segments":[],"categories_sizes":[],"default_left":[0,0,0,0,0,0,0,0,0,0,0,0,0,0,0,0,0,0,0,0,0,0,0,0,0,0,0],"id":39,"left_children":[1,3,5,7,9,-1,11,13,-1,15,-1,17,-1,19,21,-1,-1,23,25,-1,-1,-1,-1,-1,-1,-1,-1],"loss_changes":[5.2439284E0,2.6273608E0,2.3695033E0,2.7275124E0,2.2858465E0,0E0,1.3272932E0,1.8470259E0,0E0,9.075419E-1,0E0,1.7649186E0,0E0,1.1491928E0,2.4542775E0,0E0,0E0,8.069154E-1,6.407175E-1,0E0,0E0,0E0,0E0,0E0,0E0,0E0,0E0],"parents":[2147483647,0,0,1,1,2,2,3,3,4,4,6,6,7,7,9,9,11,11,13,13,14,14,17,17,18,18],"right_children":[2,4,6,8,10,-1,12,14,-1,16,-1,18,-1,20,22,-1,-1,24,26,-1,-1,-1,-1,-1,-1,-1,-1],"split_conditions":[6E-1,1.58E2,8.3402835E-4,1.2E1,1.64E2,-1.1033186E-1,1.3755158E-3,4.5E1,-9.628416E-2,5E0,1.0879951E-1,1.5E2,-1.2087258E-1,1.4E2,9.5E0,1.8391883E-2,-1.18370734E-1,5.5788006E-3,3E0,1.3210829E-1,7.090402E-2,8.2978174E-2,-9.767041E-2,5.8796797E-3,7.744856E-2,-1.2207546E-1,8.712989E-3],"split_indices":[7,14,3,12,14,0,6,15,0,10,0,14,0,14,10,0,0,3,12,0,0,0,0,0,0,0,0],"split_type":[0,0,0,0,0,0,0,0,0,0,0,0,0,0,0,0,0,0,0,0,0,0,0,0,0,0,0],"sum_hessian":[1.9283902E2,1.25803055E2,6.703596E1,1.0794475E2,1.7858305E1,1.4293251E1,5.274271E1,1.03331406E2,4.61334E0,1.3082663E1,4.775643E0,4.8703327E1,4.0393806E0,8.575286E1,1.7578545E1,3.9877164E0,9.094946E0,3.939771E1,9.305621E0,3.997982E1,4.577304E1,1.0726129E1,6.8524165E0,2.2874603E1,1.6523104E1,5.971946E0,3.3336759E0],"tree_param":{"num_deleted":"0","num_feature":"17","num_nodes":"27","size_leaf_vector":"1"}},{"base_weights":[-7.268676E-2,4.952874E-2,-3.6489952E-1,1.0567208E-1,-7.432101E-2,4.309859E-2,-1.1002156E-1,1.3316546E-1,-1.1724601E-1,-8.734972E-2,1.6265492E-1,5.0236102E-2,-6.649128E-2],"categories":[],"categories_nodes":[],"categories_segments":[],"categories_sizes":[],"default_left":[0,0,0,0,0,0,0,0,0,0,0,0,0],"id":40,"left_children":[1,3,5,7,-1,-1,-1,9,-1,-1,11,-1,-1],"loss_changes":[5.6815066E0,2.2259474E0,1.971117E0,1.606703E0,0E0,0E0,0E0,1.395325E0,0E0,0E0,1.5201569E0,0E0,0E0],"parents":[2147483647,0,0,1,1,2,2,3,3,7,7,10,10],"right_children":[2,4,6,8,-1,-1,-1,10,-1,-1,12,-1,-1],"split_conditions":[1.1185682E-3,6.666667E-3,8.3402835E-4,8E-1,-7.432101E-2,4.309859E-2,-1.1002156E-1,1.23E2,-1.1724601E-1,-8.734972E-2,1.52E2,5.0236102E-2,-6.649128E-2],"split_indices":[1,3,3,7,0,0,0,0,0,0,0,0,0],"split_type":[0,0,0,0,0,0,0,0,0,0,0,0,0],"sum_hessian":[1.5758217E2,1.1169655E2,4.5885628E1,9.673363E1,1.4962916E1,5.476915E0,4.040871E1,9.305045E1,3.6831777E0,4.733673E0,8.831678E1,8.155874E1,6.7580357E0],"tree_param":{"num_deleted":"0","num_feature":"17","num_nodes":"13","size_leaf_vector":"1"}},{"base_weights":[-1.9380325E-1,-4.0875614E-1,2.7024083E-2,-1.2044465E-1,-5.75633E-2,4.038069E-1,-1.2654148E-1,-1.232339E-1,6.928613E-2,2.4767454E-1,1.821672E-1,-2.0732784E-1,1.2313351E-1,1.3797568E-1,-1.806185E-2,-3.065218E-1,9.5023386E-2,8.2682095E-2,-8.0361634E-2,-2.1262474E-2,-1.0045093E-1],"categories":[],"categories_nodes":[],"categories_segments":[],"categories_sizes":[],"default_left":[0,0,0,0,0,0,0,0,0,0,0,0,0,0,0,0,0,0,0,0,0],"id":41,"left_children":[1,3,5,-1,7,9,11,-1,-1,13,-1,15,-1,-1,17,19,-1,-1,-1,-1,-1],"loss_changes":[5.239671E0,1.4062653E0,3.2491508E0,0E0,1.704918E0,6.435523E-1,2.1042335E0,0E0,0E0,1.0195751E0,0E0,2.2208633E0,0E0,0E0,9.142521E-1,6.2972116E-1,0E0,0E0,0E0,0E0,0E0],"parents":[2147483647,0,0,1,1,2,2,4,4,5,5,6,6,9,9,11,11,14,14,15,15],"right_children":[2,4,6,-1,8,10,12,-1,-1,14,-1,16,-1,-1,18,20,-1,-1,-1,-1,-1],"split_conditions":[5.9E-1,1.0787486E-3,1.24E2,-1.2044465E-1,2.6E-1,6.7E-1,7.4E-1,-1.232339E-1,6.928613E-2,1E-1,1.821672E-1,8E-1,1.2313351E-1,1.3797568E-1,1.08E2,1.37E2,9.5023386E-2,8.2682095E-2,-8.0361634E-2,-2.1262474E-2,-1.0045093E-1],"split_indices":[7,6,14,0,7,7,9,0,0,10,0,7,0,0,14,14,0,0,0,0,0],"split_type":[0,0,0,0,0,0,0,0,0,0,0,0,0,0,0,0,0,0,0,0,0],"sum_hessian":[1.0915175E2,5.4880325E1,5.427142E1,4.5120377E1,9.759948E0,1.5242773E1,3.902865E1,4.036516E0,5.723432E0,1.1485962E1,3.7568114E0,3.5112175E1,3.9164736E0,4.8524885E0,6.633473E0,3.044901E1,4.663163E0,3.043914E0,3.589559E0,9.731667E0,2.0717344E1],"tree_param":{"num_deleted":"0","num_feature":"17","num_nodes":"21","size_leaf_vector":"1"}},{"base_weights":[1.14053115E-1,1.0439304E-2,4.7014695E-1,1.0492928E-1,-3.5705905E-2,1.2852459E-1,7.5635505E-3,4.7557787E-3,-4.14957E-1,1.0475684E-1,-1.8703519E-1,-1.2301323E-2,-1.5406922E-1,-1.192908E-2,6.581168E-2,-1.8271249E-2,-1.1693004E-1],"categories":[],"categories_nodes":[],"categories_segments":[],"categories_sizes":[],"default_left":[0,0,0,0,0,0,0,0,0,0,0,0,0,0,0,0,0],"id":42,"left_children":[1,3,5,-1,7,-1,-1,9,11,13,15,-1,-1,-1,-1,-1,-1],"loss_changes":[6.8168516E0,2.7394266E0,7.906399E-1,0E0,2.005258E0,0E0,0E0,2.3010063E0,8.9747214E-1,1.9178189E0,1.2813051E0,0E0,0E0,0E0,0E0,0E0,0E0],"parents":[2147483647,0,0,1,1,2,2,4,4,7,7,8,8,9,9,10,10],"right_children":[2,4,6,-1,8,-1,-1,10,12,14,16,-1,-1,-1,-1,-1,-1],"split_conditions":[2.9368575E-3,2.9E-1,8.3402835E-4,1.0492928E-1,7.936508E-4,1.2852459E-1,7.5635505E-3,1.51E2,8.7E1,7E-1,5.9E-1,-1.2301323E-2,-1.5406922E-1,-1.192908E-2,6.581168E-2,-1.8271249E-2,-1.1693004E-1],"split_indices":[1,7,6,0,6,0,0,14,11,8,7,0,0,0,0,0,0],"split_type":[0,0,0,0,0,0,0,0,0,0,0,0,0,0,0,0,0],"sum_hessian":[1.8389038E2,1.4324052E2,4.0649857E1,1.3692042E1,1.295485E2,3.679987E1,3.8499866E0,1.1795185E2,1.1596632E1,7.782644E1,4.0125416E1,4.5597134E0,7.0369186E0,4.0025036E1,3.78014E1,2.9437685E1,1.0687731E1],"tree_param":{"num_deleted":"0","num_feature":"17","num_nodes":"17","size_leaf_vector":"1"}},{"base_weights":[-4.7016013E-2,1.8018268E-2,-4.0633675E-1,-2.547061E-1,1.21401176E-1,-1.21977605E-1,2.2788126E-2,-9.1614135E-2,1.7177193E-1,1.7265676E-1,-2.7531612E-1,-2.5143756E-2,1.1357776E-1,3.546461E-2,5.0628227E-1,-1.0939312E-1,2.4736125E-2,-5.503561E-3,6.2421568E-2,1.5187836E-1,4.1786272E-2],"categories":[],"categories_nodes":[],"categories_segments":[],"categories_sizes":[],"default_left":[0,0,0,0,0,0,0,0,0,0,0,0,0,0,0,0,0,0,0,0,0],"id":43,"left_children":[1,3,5,7,9,-1,-1,-1,11,13,15,-1,-1,17,19,-1,-1,-1,-1,-1,-1],"loss_changes":[3.5039866E0,3.630278E0,9.774132E-1,1.7512748E0,1.9435966E0,0E0,0E0,0E0,6.641479E-1,3.789794E0,7.147905E-1,0E0,0E0,7.447219E-1,7.285447E-1,0E0,0E0,0E0,0E0,0E0,0E0],"parents":[2147483647,0,0,1,1,2,2,3,3,4,4,8,8,9,9,10,10,13,13,14,14],"right_children":[2,4,6,8,10,-1,-1,-1,12,14,16,-1,-1,18,20,-1,-1,-1,-1,-1,-1],"split_conditions":[2.9368575E-3,1.37E2,1.7291067E-2,1.07E2,1.6792611E-3,-1.21977605E-1,2.2788126E-2,-9.1614135E-2,1.28E2,3E0,1.54E2,-2.5143756E-2,1.1357776E-1,2.5974025E-3,9.1E1,-1.0939312E-1,2.4736125E-2,-5.503561E-3,6.2421568E-2,1.5187836E-1,4.1786272E-2],"split_indices":[1,14,2,11,4,0,0,0,14,15,14,0,0,2,11,0,0,0,0,0,0],"split_type":[0,0,0,0,0,0,0,0,0,0,0,0,0,0,0,0,0,0,0,0,0],"sum_hessian":[1.4863371E2,1.2665922E2,2.1974487E1,3.4413254E1,9.2245964E1,1.889382E1,3.0806677E0,2.7377724E1,7.0355287E0,8.219165E1,1.0054316E1,3.91056E0,3.124969E0,5.9025658E1,2.3165993E1,6.8950586E0,3.1592565E0,4.724686E1,1.1778798E1,1.7228401E1,5.937592E0],"tree_param":{"num_deleted":"0","num_feature":"17","num_nodes":"21","size_leaf_vector":"1"}},{"base_weights":[-1.8877186E-1,-2.4163534E-1,1.5185954E-1,-3.3425495E-1,1.1563976E-1,-4.071835E-1,8.614816E-2,-1.1357439E-1,2.7508616E-1,-4.7058767E-1,4.8403177E-2,1.8409338E-2,1.2516414E-1,-1.24283314E-1,-2.3930015E-2],"categories":[],"categories_nodes":[],"categories_segments":[],"categories_sizes":[],"default_left":[0,0,0,0,0,0,0,0,0,0,0,0,0,0,0],"id":44,"left_children":[1,3,-1,5,7,9,-1,-1,11,13,-1,-1,-1,-1,-1],"loss_changes":[4.27005E0,3.1019082E0,0E0,3.792716E0,1.9244989E0,2.646224E0,0E0,0E0,6.946453E-1,5.601721E-1,0E0,0E0,0E0,0E0,0E0],"parents":[2147483647,0,0,1,1,3,3,4,4,5,5,8,8,9,9],"right_children":[2,4,-1,6,8,10,-1,-1,12,14,-1,-1,-1,-1,-1],"split_conditions":[8.1E-1,9.6153846E-4,1.5185954E-1,6.9E-1,2.6E-1,9.47226E-3,8.614816E-2,-1.1357439E-1,2.3E0,7.7E-1,4.8403177E-2,1.8409338E-2,1.2516414E-1,-1.24283314E-1,-2.3930015E-2],"split_indices":[7,6,0,9,7,4,0,0,8,7,0,0,0,0,0],"split_type":[0,0,0,0,0,0,0,0,0,0,0,0,0,0,0],"sum_hessian":[9.6954315E1,9.157153E1,5.3827815E0,7.277091E1,1.8800623E1,6.607325E1,6.697666E0,3.7053545E0,1.5095269E1,5.996218E1,6.1110644E0,8.67572E0,6.4195485E0,5.568508E1,4.277099E0],"tree_param":{"num_deleted":"0","num_feature":"17","num_nodes":"15","size_leaf_vector":"1"}},{"base_weights":[9.684973E-2,-2.8038433E-2,3.844062E-1,9.883609E-2,-1.8277006E-1,1.1064662E-1,-1.3553731E-3,1.7138833E-1,-2.7561733E-1,2.5444256E-2,-2.721909E-1,3.452637E-1,-9.080893E-2,-1.6739368E-1,1.2022277E-2,-9.408306E-2,1.8997979E-1,-7.86256E-2,2.4157563E-2,1.0113587E-1,-3.6825273E-2,-9.802627E-2,4.5602698E-2,9.407276E-2,-8.1544794E-2,9.255364E-2,-8.759024E-3],"categories":[],"categories_nodes":[],"categories_segments":[],"categories_sizes":[],"default_left":[0,0,0,0,0,0,0,0,0,0,0,0,0,0,0,0,0,0,0,0,0,0,0,0,0,0,0],"id":45,"left_children":[1,3,5,7,9,-1,-1,11,13,15,17,19,21,-1,23,-1,25,-1,-1,-1,-1,-1,-1,-1,-1,-1,-1],"loss_changes":[6.1908293E0,2.3917284E0,1.1866703E0,1.8697627E0,1.0277158E0,0E0,0E0,2.6214437E0,1.2855616E0,1.220961E0,6.3072705E-1,1.0638456E0,2.001904E0,0E0,1.0466529E0,0E0,5.403075E-1,0E0,0E0,0E0,0E0,0E0,0E0,0E0,0E0,0E0,0E0],"parents":[2147483647,0,0,1,1,2,2,3,3,4,4,7,7,8,8,9,9,10,10,11,11,12,12,14,14,16,16],"right_children":[2,4,6,8,10,-1,-1,12,14,16,18,20,22,-1,24,-1,26,-1,-1,-1,-1,-1,-1,-1,-1,-1,-1],"split_conditions":[1.5923567E-3,6E-1,1.58E2,4.4E1,4.8E0,1.1064662E-1,-1.3553731E-3,1.52E2,4.636785E-3,1.22E2,3.0349013E-3,4E-1,2E-1,-1.6739368E-1,3.3E-1,-9.408306E-2,3.7E0,-7.86256E-2,2.4157563E-2,1.0113587E-1,-3.6825273E-2,-9.802627E-2,4.5602698E-2,9.407276E-2,-8.1544794E-2,9.255364E-2,-8.759024E-3],"split_indices":[1,7,14,15,10,0,0,14,4,14,4,9,9,0,7,0,10,0,0,0,0,0,0,0,0,0,0],"split_type":[0,0,0,0,0,0,0,0,0,0,0,0,0,0,0,0,0,0,0,0,0,0,0,0,0,0,0],"sum_hessian":[1.7108682E2,1.1991099E2,5.117584E1,6.608491E1,5.3826073E1,4.440765E1,6.7681885E0,5.5813133E1,1.0271778E1,1.6386335E1,3.743974E1,3.336826E1,2.2444874E1,3.7739508E0,6.4978275E0,4.3865104E0,1.1999825E1,3.371621E1,3.7235312E0,2.994114E1,3.42712E0,1.0466695E1,1.1978179E1,3.0741177E0,3.4237099E0,6.304009E0,5.6958156E0],"tree_param":{"num_deleted":"0","num_feature":"17","num_nodes":"27","size_leaf_vector":"1"}},{"base_weights":[-4.906412E-2,4.9603754E-3,-3.8392845E-1,-3.0666056E-1,6.337791E-2,-1.2006209E-1,2.6185643E-2,-1.0365245E-1,-1.1650827E-2,-1.0326038E-2,3.9345205E-1,8.8035755E-2,-2.7123335E-1,1.7097951E-1,1.875042E-1,-3.52956E-4,7.3663436E-2,-1.3602719E-1,2.6894888E-2,-3.3567477E-2,1.1539688E-1],"categories":[],"categories_nodes":[],"categories_segments":[],"categories_sizes":[],"default_left":[0,0,0,0,0,0,0,0,0,0,0,0,0,0,0,0,0,0,0,0,0],"id":46,"left_children":[1,3,5,7,9,-1,-1,-1,-1,11,13,15,17,-1,19,-1,-1,-1,-1,-1,-1],"loss_changes":[2.51822E0,2.21772E0,9.60891E-1,5.208601E-1,2.498203E0,0E0,0E0,0E0,0E0,2.1996856E0,9.930322E-1,1.1524537E0,2.483837E0,0E0,1.1508566E0,0E0,0E0,0E0,0E0,0E0,0E0],"parents":[2147483647,0,0,1,1,2,2,3,3,4,4,9,9,10,10,11,11,12,12,14,14],"right_children":[2,4,6,8,10,-1,-1,-1,-1,12,14,16,18,-1,20,-1,-1,-1,-1,-1,-1],"split_conditions":[2.9368575E-3,1.29E2,1.3888889E-2,2.1E-1,6E0,-1.2006209E-1,2.6185643E-2,-1.0365245E-1,-1.1650827E-2,7E-1,1E0,2.6548672E-3,1.51E2,1.7097951E-1,1.48E2,-3.52956E-4,7.3663436E-2,-1.3602719E-1,2.6894888E-2,-3.3567477E-2,1.1539688E-1],"split_indices":[1,14,2,9,12,0,0,0,0,8,16,2,14,0,14,0,0,0,0,0,0],"split_type":[0,0,0,0,0,0,0,0,0,0,0,0,0,0,0,0,0,0,0,0,0],"sum_hessian":[1.3809308E2,1.19757484E2,1.8335587E1,1.8235115E1,1.0152237E2,1.5329716E1,3.0058706E0,1.2464528E1,5.770586E0,8.37828E1,1.7739574E1,6.1325665E1,2.2457134E1,6.3957677E0,1.1343807E1,4.3492878E1,1.7832785E1,1.2799241E1,9.657893E0,5.4529734E0,5.890834E0],"tree_param":{"num_deleted":"0","num_feature":"17","num_nodes":"21","size_leaf_vector":"1"}},{"base_weights":[-1.7101698E-1,1.7083989E-1,-3.3215743E-1,-9.1477916E-2,3.115172E-1,-4.18338E-1,6.731497E-2,-3.5552427E-2,1.3746971E-1,-1.635198E-2,-1.140038E-1,-8.052278E-2,9.4026744E-2],"categories":[],"categories_nodes":[],"categories_segments":[],"categories_sizes":[],"default_left":[0,0,0,0,0,0,0,0,0,0,0,0,0],"id":47,"left_children":[1,3,5,-1,7,9,-1,11,-1,-1,-1,-1,-1],"loss_changes":[4.871405E0,2.278244E0,3.2091885E0,0E0,1.9433448E0,6.71051E-1,0E0,1.3489355E0,0E0,0E0,0E0,0E0,0E0],"parents":[2147483647,0,0,1,1,2,2,4,4,5,5,7,7],"right_children":[2,4,6,-1,8,10,-1,12,-1,-1,-1,-1,-1],"split_conditions":[1.26E2,2.9E-1,7.9E-1,-9.1477916E-2,3.6E1,1.5E1,6.731497E-2,6.6E-1,1.3746971E-1,-1.635198E-2,-1.140038E-1,-8.052278E-2,9.4026744E-2],"split_indices":[14,7,7,0,15,11,0,7,0,0,0,0,0],"split_type":[0,0,0,0,0,0,0,0,0,0,0,0,0],"sum_hessian":[8.6401054E1,2.7660198E1,5.8740852E1,5.411184E0,2.2249014E1,5.1645107E1,7.0957475E0,9.406548E0,1.2842466E1,5.2511716E0,4.6393932E1,5.6743565E0,3.7321913E0],"tree_param":{"num_deleted":"0","num_feature":"17","num_nodes":"13","size_leaf_vector":"1"}},{"base_weights":[8.436586E-2,3.3942842E-1,-1.9185356E-3,1.055831E-1,-5.182216E-3,2.5852865E-2,-3.0088264E-1,7.503709E-2,-9.615289E-2,1.246386E-1,-6.6584975E-2,1.5731915E-5,-1.5047821E-1,5.6165673E-2,1.04649924E-1,-2.1179903E-1,2.3348752E-1,7.150339E-2,-1.5691806E-2,-8.1224486E-2,4.109826E-2,7.0162914E-3,1.2866221E-1],"categories":[],"categories_nodes":[],"categories_segments":[],"categories_sizes":[],"default_left":[0,0,0,0,0,0,0,0,0,0,0,0,0,0,0,0,0,0,0,0,0,0,0],"id":48,"left_children":[1,3,5,-1,7,9,11,-1,-1,13,15,-1,-1,17,-1,19,21,-1,-1,-1,-1,-1,-1],"loss_changes":[3.4644642E0,1.139554E0,9.924691E-1,0E0,1.1244032E0,1.0076532E0,9.206257E-1,0E0,0E0,1.048509E0,2.5414133E0,0E0,0E0,1.2304674E0,0E0,1.7159729E0,1.0903698E0,0E0,0E0,0E0,0E0,0E0,0E0],"parents":[2147483647,0,0,1,1,2,2,4,4,5,5,6,6,9,9,10,10,13,13,15,15,16,16],"right_children":[2,4,6,-1,8,10,12,-1,-1,14,16,-1,-1,18,-1,20,22,-1,-1,-1,-1,-1,-1],"split_conditions":[4.3E-1,7.936508E-4,1.23E2,1.055831E-1,1.31E2,6E-1,7.29927E-4,7.503709E-2,-9.615289E-2,9.1E1,5.5788006E-3,1.5731915E-5,-1.5047821E-1,2.4E1,1.04649924E-1,7E-1,1.0427529E-3,7.150339E-2,-1.5691806E-2,-8.1224486E-2,4.109826E-2,7.0162914E-3,1.2866221E-1],"split_indices":[7,6,11,0,0,7,2,0,0,11,3,0,0,11,0,8,2,0,0,0,0,0,0],"split_type":[0,0,0,0,0,0,0,0,0,0,0,0,0,0,0,0,0,0,0,0,0,0,0],"sum_hessian":[1.5638942E2,3.878992E1,1.17599495E2,3.1082756E1,7.7071624E0,1.0843982E2,9.159676E0,4.386368E0,3.3207943E0,5.225162E1,5.6188198E1,5.080959E0,4.078717E0,4.3347168E1,8.904455E0,3.8062695E1,1.8125502E1,1.4301455E1,2.9045712E1,2.9367687E1,8.695008E0,1.11098385E1,7.015663E0],"tree_param":{"num_deleted":"0","num_feature":"17","num_nodes":"23","size_leaf_vector":"1"}},{"base_weights":[-2.3377549E-2,1.3245235E-2,-1.1462341E-1,-4.2717777E-2,2.256913E-1,5.4853678E-2,-2.4764642E-1,3.211712E-3,4.923393E-1,9.022418E-2,-1.09857E-1,-1.3074824E-1,-4.115275E-2,-6.3913964E-2,1.3318801E-1,1.9303057E-1,6.048879E-2,4.668416E-2,-1.6348613E-2,3.6074948E-2,-5.8412004E-2],"categories":[],"categories_nodes":[],"categories_segments":[],"categories_sizes":[],"default_left":[0,0,0,0,0,0,0,0,0,0,0,0,0,0,0,0,0,0,0,0,0],"id":49,"left_children":[1,3,-1,5,7,9,11,13,15,17,-1,-1,19,-1,-1,-1,-1,-1,-1,-1,-1],"loss_changes":[2.1322544E0,1.4842306E0,0E0,1.9932978E0,1.5419606E0,1.2267237E0,1.8049029E0,2.219015E0,6.418929E-1,9.7650266E-1,0E0,0E0,7.278453E-1,0E0,0E0,0E0,0E0,0E0,0E0,0E0,0E0],"parents":[2147483647,0,0,1,1,3,3,4,4,5,5,6,6,7,7,8,8,9,9,12,12],"right_children":[2,4,-1,6,8,10,12,14,16,18,-1,-1,20,-1,-1,-1,-1,-1,-1,-1,-1],"split_conditions":[5.05476E-3,6E0,-1.1462341E-1,7E-1,1E-1,6.9E-1,8.1E0,7.3E1,9E0,7.9E0,-1.09857E-1,-1.3074824E-1,1E0,-6.3913964E-2,1.3318801E-1,1.9303057E-1,6.048879E-2,4.668416E-2,-1.6348613E-2,3.6074948E-2,-5.8412004E-2],"split_indices":[1,12,0,8,9,9,10,15,10,10,0,0,8,0,0,0,0,0,0,0,0],"split_type":[0,0,0,0,0,0,0,0,0,0,0,0,0,0,0,0,0,0,0,0,0],"sum_hessian":[1.3241284E2,1.23028465E2,9.384379E0,9.800951E1,2.5018957E1,6.689264E1,3.1116867E1,1.4190807E1,1.0828151E1,6.3188774E1,3.703866E0,1.2676852E1,1.8440014E1,9.878762E0,4.312045E0,4.1286473E0,6.6995034E0,3.8875214E1,2.4313562E1,9.5195465E0,8.920468E0],"tree_param":{"num_deleted":"0","num_feature":"17","num_nodes":"21","size_leaf_vector":"1"}},{"base_weights":[-1.19327836E-1,1.5125786E-1,-2.4567233E-1,-4.094986E-2,3.987516E-1,2.4600193E-2,-1.1477876E-1,1.2518875E-1,3.0746944E-3,-1.7731883E-1,8.090461E-2,2.0218115E-2,-1.0410727E-1],"categories":[],"categories_nodes":[],"categories_segments":[],"categories_sizes":[],"default_left":[0,0,0,0,0,0,0,0,0,0,0,0,0],"id":50,"left_children":[1,3,5,-1,7,9,-1,-1,-1,11,-1,-1,-1],"loss_changes":[2.7268162E0,2.0663695E0,3.1278763E0,0E0,5.721419E-1,1.5540564E0,0E0,0E0,0E0,9.8719805E-1,0E0,0E0,0E0],"parents":[2147483647,0,0,1,1,2,2,4,4,5,5,9,9],"right_children":[2,4,6,-1,8,10,-1,-1,-1,12,-1,-1,-1],"split_conditions":[1.26E2,3.7E1,2E0,-4.094986E-2,1.29E2,1.3404826E-3,-1.1477876E-1,1.2518875E-1,3.0746944E-3,3.3361134E-3,8.090461E-2,2.0218115E-2,-1.0410727E-1],"split_indices":[14,15,15,0,11,2,0,0,0,3,0,0,0],"split_type":[0,0,0,0,0,0,0,0,0,0,0,0,0],"sum_hessian":[7.76748E1,2.4661438E1,5.3013355E1,1.09981985E1,1.366324E1,2.37858E1,2.9227556E1,1.0574759E1,3.0884814E0,1.4441778E1,9.344023E0,7.2625766E0,7.179201E0],"tree_param":{"num_deleted":"0","num_feature":"17","num_nodes":"13","size_leaf_vector":"1"}},{"base_weights":[6.0991943E-2,-1.823431E-2,3.676913E-1,-9.747355E-2,3.158855E-3,4.1943336E-1,-3.0500193E-3,6.68905E-2,-1.2796718E-1,-1.5329487E-3,1.18821986E-1,1.1618991E-1,-2.3782349E-1,-3.4114292E-1,9.857121E-2,6.3516885E-2,-1.1566943E-2,2.707466E-2,-1.5343732E-1,-2.704664E-2,-1.275767E-1,-2.1987187E-2,7.51673E-2],"categories":[],"categories_nodes":[],"categories_segments":[],"categories_sizes":[],"default_left":[0,0,0,0,0,0,0,0,0,0,0,0,0,0,0,0,0,0,0,0,0,0,0],"id":51,"left_children":[1,3,5,-1,7,9,-1,11,13,-1,-1,15,17,19,21,-1,-1,-1,-1,-1,-1,-1,-1],"loss_changes":[3.5834727E0,9.390255E-1,6.0003567E-1,0E0,9.487764E-1,6.3730335E-1,0E0,1.1748356E0,1.8272604E0,0E0,0E0,1.49948E0,1.4932227E0,7.0787406E-1,7.34582E-1,0E0,0E0,0E0,0E0,0E0,0E0,0E0,0E0],"parents":[2147483647,0,0,1,1,2,2,4,4,5,5,7,7,8,8,11,11,12,12,13,13,14,14],"right_children":[2,4,6,-1,8,10,-1,12,14,-1,-1,16,18,20,22,-1,-1,-1,-1,-1,-1,-1,-1],"split_conditions":[2.244669E-3,4E-1,2.111111E-2,-9.747355E-2,1.51E2,3.5E1,-3.0500193E-3,5E1,2E-1,-1.5329487E-3,1.18821986E-1,1.4E-1,1E0,3E0,4.1E1,6.3516885E-2,-1.1566943E-2,2.707466E-2,-1.5343732E-1,-2.704664E-2,-1.275767E-1,-2.1987187E-2,7.51673E-2],"split_indices":[1,10,2,0,14,11,0,15,9,0,0,9,13,15,11,0,0,0,0,0,0,0,0],"split_type":[0,0,0,0,0,0,0,0,0,0,0,0,0,0,0,0,0,0,0,0,0,0,0],"sum_hessian":[1.4620032E2,1.1693448E2,2.9265842E1,5.426356E0,1.11508125E2,2.5666004E1,3.5998385E0,7.536707E1,3.614105E1,3.0834064E0,2.2582598E1,6.54041E1,9.962979E0,1.8359043E1,1.7782007E1,3.507084E1,3.0333258E1,5.558122E0,4.404857E0,8.414652E0,9.94439E0,9.541617E0,8.24039E0],"tree_param":{"num_deleted":"0","num_feature":"17","num_nodes":"23","size_leaf_vector":"1"}},{"base_weights":[-1.41237E-2,3.559641E-2,-1.0071446E-1,-1.7301728E-1,1.22310124E-1,1.0555831E-2,-3.5236502E-1,1.8199807E-1,-8.865749E-2,-1.0951979E-1,1.33284675E-2,2.4909273E-1,-1.5751033E-1,1.4154899E-1,-3.724343E-1,-3.1529564E-2,8.0895066E-2,-9.614381E-2,2.7589709E-2,8.0661446E-2,-5.1385865E-2,-1.5930836E-1,-1.6104465E-2],"categories":[],"categories_nodes":[],"categories_segments":[],"categories_sizes":[],"default_left":[0,0,0,0,0,0,0,0,0,0,0,0,0,0,0,0,0,0,0,0,0,0,0],"id":52,"left_children":[1,3,-1,5,7,-1,9,11,13,-1,-1,15,17,19,21,-1,-1,-1,-1,-1,-1,-1,-1],"loss_changes":[2.3877795E0,2.007083E0,0E0,1.2752213E0,1.0000143E0,0E0,6.4667845E-1,1.4340153E0,1.2222955E0,0E0,0E0,1.4812379E0,6.9440013E-1,7.333618E-1,6.355783E-1,0E0,0E0,0E0,0E0,0E0,0E0,0E0,0E0],"parents":[2147483647,0,0,1,1,3,3,4,4,6,6,7,7,8,8,11,11,12,12,13,13,14,14],"right_children":[2,4,-1,6,8,-1,10,12,14,-1,-1,16,18,20,22,-1,-1,-1,-1,-1,-1,-1,-1],"split_conditions":[2.9368575E-3,1.4E2,-1.0071446E-1,3.241491E-3,6.6E-1,1.0555831E-2,1.15E2,9.4E1,7.9E0,-1.0951979E-1,1.33284675E-2,1.9E1,1.17E2,7.9E-1,9.7E0,-3.1529564E-2,8.0895066E-2,-9.614381E-2,2.7589709E-2,8.0661446E-2,-5.1385865E-2,-1.5930836E-1,-1.6104465E-2],"split_indices":[1,14,0,3,7,0,11,11,10,0,0,11,11,7,10,0,0,0,0,0,0,0,0],"split_type":[0,0,0,0,0,0,0,0,0,0,0,0,0,0,0,0,0,0,0,0,0,0,0],"sum_hessian":[1.2178569E2,1.0878207E2,1.300362E1,3.1648243E1,7.713383E1,1.4732059E1,1.6916185E1,6.0230457E1,1.6903368E1,1.389825E1,3.017935E0,5.0514038E1,9.716418E0,9.609284E0,7.2940836E0,8.255146E0,4.2258892E1,5.022594E0,4.6938243E0,6.360609E0,3.2486749E0,3.346923E0,3.9471602E0],"tree_param":{"num_deleted":"0","num_feature":"17","num_nodes":"23","size_leaf_vector":"1"}},{"base_weights":[-1.05914734E-1,-3.3760038E-1,6.869685E-2,-9.494028E-2,-1.1521561E-1,1.2957288E-1,-3.0584699E-2,-1.0347098E-1,1.2031338E-1,-1.1365694E-1,1.0586176E-1,-2.2233611E-1,7.767361E-2,5.2021253E-3,-1.010941E-1],"categories":[],"categories_nodes":[],"categories_segments":[],"categories_sizes":[],"default_left":[0,0,0,0,0,0,0,0,0,0,0,0,0,0,0],"id":53,"left_children":[1,3,5,7,-1,-1,9,-1,-1,11,-1,13,-1,-1,-1],"loss_changes":[2.9695985E0,8.97872E-1,1.9069731E0,2.3797321E0,0E0,0E0,1.3926858E0,0E0,0E0,1.4951866E0,0E0,1.1240548E0,0E0,0E0,0E0],"parents":[2147483647,0,0,1,1,2,2,3,3,6,6,9,9,11,11],"right_children":[2,4,6,8,-1,-1,10,-1,-1,12,-1,14,-1,-1,-1],"split_conditions":[5.9E-1,1.29E2,4E-1,1.31E2,-1.1521561E-1,1.2957288E-1,8.1E-1,-1.0347098E-1,1.2031338E-1,7.1E-1,1.0586176E-1,1.37E2,7.767361E-2,5.2021253E-3,-1.010941E-1],"split_indices":[7,14,10,0,0,0,7,0,0,9,0,14,0,0,0],"split_type":[0,0,0,0,0,0,0,0,0,0,0,0,0,0,0],"sum_hessian":[7.183171E1,3.0469467E1,4.136224E1,1.086266E1,1.9606808E1,6.717534E0,3.4644707E1,7.1734166E0,3.6892433E0,2.9920492E1,4.7242146E0,2.4199415E1,5.721077E0,1.0741361E1,1.3458055E1],"tree_param":{"num_deleted":"0","num_feature":"17","num_nodes":"15","size_leaf_vector":"1"}},{"base_weights":[6.495679E-2,-7.7138194E-3,3.1667477E-1,4.823142E-2,-2.9299292E-1,1.1152523E-1,6.2115125E-2,1.0757661E-1,-2.044385E-1,-1.2359695E-1,-1.1175643E-1,-1.986452E-1,1.0344728E-1,3.6905613E-2,-4.895524E-2,-1.3101344E-1,9.595315E-2,2.6312495E-2,-9.747738E-2,3.0238781E-2,-1.19275056E-1],"categories":[],"categories_nodes":[],"categories_segments":[],"categories_sizes":[],"default_left":[0,0,0,0,0,0,0,0,0,0,0,0,0,0,0,0,0,0,0,0,0],"id":54,"left_children":[1,3,5,7,9,-1,11,13,15,-1,17,19,-1,-1,-1,-1,-1,-1,-1,-1,-1],"loss_changes":[2.5256133E0,1.7379769E0,9.914961E-1,1.3889169E0,5.9643567E-1,0E0,1.144936E0,9.341869E-1,3.526678E0,0E0,6.8633115E-1,7.101688E-1,0E0,0E0,0E0,0E0,0E0,0E0,0E0,0E0,0E0],"parents":[2147483647,0,0,1,1,2,2,3,3,4,4,6,6,7,7,8,8,10,10,11,11],"right_children":[2,4,6,8,10,-1,12,14,16,-1,18,20,-1,-1,-1,-1,-1,-1,-1,-1,-1],"split_conditions":[1.7064846E-3,3.5E1,2.0470829E-3,2.5773195E-3,2.1E0,1.1152523E-1,5.05476E-3,6E0,7E-1,-1.2359695E-1,1E0,1.33E2,1.0344728E-1,3.6905613E-2,-4.895524E-2,-1.3101344E-1,9.595315E-2,2.6312495E-2,-9.747738E-2,3.0238781E-2,-1.19275056E-1],"split_indices":[1,15,2,2,8,0,1,12,8,0,13,0,0,0,0,0,0,0,0,0,0],"split_type":[0,0,0,0,0,0,0,0,0,0,0,0,0,0,0,0,0,0,0,0,0],"sum_hessian":[1.369347E2,1.0701032E2,2.992437E1,9.01602E1,1.6850119E1,1.9336868E1,1.05875025E1,7.3476776E1,1.6683426E1,7.16172E0,9.688398E0,6.329817E0,4.2576857E0,6.5360535E1,8.116245E0,1.08803215E1,5.803105E0,5.7918334E0,3.8965652E0,3.2107658E0,3.119051E0],"tree_param":{"num_deleted":"0","num_feature":"17","num_nodes":"21","size_leaf_vector":"1"}},{"base_weights":[-2.794262E-2,-8.63698E-2,2.7982015E-2,-6.643797E-2,1.2869321E-1,-1.4694297E-1,1.6452925E-1,2.5568742E-1,-6.058663E-2,-3.8709708E-2,-1.3148247E-1,-3.2781877E-2,8.512858E-2,9.7978674E-2,4.2813188E-1,-2.2874145E-1,1.18364744E-1,3.7025634E-2,-5.5720706E-2,7.389111E-2,-3.3932015E-2,1.5477353E-1,-5.933459E-3,-9.318157E-2,1.0357978E-2],"categories":[],"categories_nodes":[],"categories_segments":[],"categories_sizes":[],"default_left":[0,0,0,0,0,0,0,0,0,0,0,0,0,0,0,0,0,0,0,0,0,0,0,0,0],"id":55,"left_children":[1,-1,3,5,7,9,11,13,15,17,-1,-1,-1,19,21,23,-1,-1,-1,-1,-1,-1,-1,-1,-1],"loss_changes":[2.0813353E0,0E0,9.60479E-1,9.9713826E-1,1.1880383E0,1.593149E0,7.7308446E-1,7.572025E-1,1.94001E0,1.1229911E0,0E0,0E0,0E0,8.0890155E-1,1.2006948E0,6.452609E-1,0E0,0E0,0E0,0E0,0E0,0E0,0E0,0E0,0E0],